7.064276226237349576e-02
1.244878719883987100e-01
-1.323131393843016979e-01
-2.593736533230694280e-02
-6.357480219875960570e-02
-1.335727015998865730e-01
3.702739424020864284e-02
-7.434756596132967299e-02
-6.036143579554252570e-02
-2.631116731139305706e-02
4.763652042657790658e-02
8.272551894397428551e-02
-1.697074265072007551e-03
1.279102588267353735e-01
2.652306044362713589e-04
7.037763386561137098e-03
9.947070507235204057e-03
-1.002755855582006944e-01
1.131936878325156826e-01
3.374159293817607236e-02
1.637462427397663386e-02
3.006238039885673896e-02
-2.464482809930393023e-02
5.679107644669217220e-02
6.492137493668598269e-02
1.853439168002343068e-02
2.361866756870131812e-02
5.249218586526403774e-02
-4.620847941557253147e-03
-8.040339891295306129e-02
-3.513481019111801967e-02
4.765526194890834510e-02
9.079812208344914537e-02
7.801007655612218761e-02
3.759836530150096473e-02
-3.832702473308904206e-02
-3.431377590383209025e-02
1.010251514937213387e-02
-1.113584931479904561e-01
-8.057940135149915806e-02
1.705119815006776642e-03
-7.699108995960761426e-02
1.016349209690557837e-01
8.527265043254218801e-02
6.790702081393486245e-02
2.192202204422358941e-02
3.789129934474291805e-02
-1.695228926706804709e-02
-1.043260065347765241e-02
7.666341411993482513e-02
-8.454328296055795000e-02
2.545032782985539449e-02
-2.351295187800776787e-02
-3.437385284778069622e-02
6.415604410366156085e-02
-7.222133588582434899e-03
-5.212933985914644519e-02
2.369288437635273109e-02
2.602084743412990189e-02
1.006680226867834177e-01
2.759521819849098181e-02
9.328089528068712888e-02
5.939959840444701544e-03
9.774189967590186934e-02
-4.924061671680366598e-02
-1.011085306735604872e-01
9.202965367877855019e-02
-5.962240239527234753e-02
9.396758425100458501e-02
5.961222764171143079e-02
-8.009794223707868144e-02
-2.245949290305527396e-02
8.645316768799307661e-02
5.650950140991322507e-02
-4.105166331426168824e-02
-5.818838088548667492e-02
-6.857754766815577375e-04
-6.384154063596292339e-02
-3.169115742191993407e-02
-6.468354752066068913e-02
-7.360376210751466697e-02
-7.186374008476882624e-02
-1.637057332688510169e-02
-5.346892352013574851e-02
9.139757650071365924e-02
4.840252404640831008e-02
-8.901524086110630674e-02
-1.337565020720437453e-02
6.483327754101762819e-02
-9.748777909512368334e-02
9.424759597210813356e-03
4.474509768129209322e-03
-1.595397387141574488e-02
-4.436675381965194537e-02
-1.382664294098310542e-01
2.104048998118544789e-02
8.883063367196618321e-02
6.971438430855526891e-02
-5.872477861424887924e-02
-4.036104187665547072e-02
-3.175259139341620601e-02
-6.211657152791279224e-02
5.753915343112486758e-02
-4.005561616033611466e-02
-7.004046197405265628e-02
-1.098745858771290607e-01
-1.501054921390360675e-01
8.745900542580811732e-02
6.542911224182171304e-02
7.493067756003940483e-02
-1.927836582070951987e-02
-4.695146600685778937e-02
-8.790673022244929746e-02
7.411289093238960547e-03
-9.261082019288072176e-02
-3.868023385843237516e-02
2.181016664857777024e-02
-2.685819725422995685e-02
-1.780044385605503154e-02
-5.888663870455666804e-02
-2.192942075663538090e-02
5.484586385054317226e-02
-1.205916399407839096e-01
-1.134244631057031716e-01
-3.739055596580778684e-02
-2.226212167666138594e-02
-7.071575336266365530e-02
1.663764397448976307e-01
6.414566877737028043e-03
-3.622690310008908066e-02
-2.549996295190437579e-02
3.465850254676561965e-02
-1.662079037175725332e-02
6.447180052421336294e-02
3.452432404474077565e-02
-9.315205003998687505e-02
7.794320665338268402e-03
-1.254968025856896714e-02
3.059219779841838155e-02
9.931204310269552138e-02
-6.587473130376514385e-02
-2.636520797282259146e-03
4.071720250064171653e-02
-2.550343044496878459e-02
-2.469491658369437487e-02
-5.224665319087364729e-02
-6.027091378975779623e-02
-1.452777907198920526e-01
5.484003167848686133e-02
-1.026540606714249487e-01
-6.414820613982758629e-03
7.587052336134605945e-02
7.455940195530522119e-02
2.283192081933894599e-02
-1.447467277812766392e-02
-2.055590879370045466e-03
-1.265573963100257576e-02
4.909614897760352509e-02
-1.228402546236862514e-01
-7.502735333213272906e-02
9.984739929784124113e-02
3.012741342918586612e-02
-3.004902776404415332e-02
2.934336474533313574e-02
-9.419379729728735717e-02
1.771293767016228482e-02
-1.339478678566563379e-02
2.644132996786802180e-04
-3.280968630520152834e-02
1.564722583503734832e-01
-1.757431781013372649e-02
5.153605804717908273e-02
-1.895541882387925467e-02
-1.069532875323531973e-01
-3.977173768214414123e-02
6.502654568330597240e-02
5.995191407772136605e-02
-8.870365865413223916e-02
-3.531334138066540007e-02
1.141632553449252602e-01
4.444377688692522504e-02
-2.718572752996732938e-03
-4.980521802168127316e-02
5.846145898390393142e-02
6.711771314477224526e-02
2.345469340470302672e-02
5.148099388658793074e-02
-9.478048931070554017e-02
-4.220692756852874317e-02
-1.191978014521733742e-01
8.569360573941617321e-02
1.251956265273287683e-01
1.004968014034527540e-01
6.615873274119435377e-02
-3.508513715215853812e-02
-1.000829172154466956e-01
1.060557144306793209e-01
5.330301159466058897e-02
-7.507570141945008046e-02
-1.140311319094832188e-01
-7.373072809169341386e-03
-1.696901983839768924e-01
-7.707337126393057347e-02
9.028982185411621453e-02
-8.957881064909735402e-02
1.136725860377441749e-01
-7.832157621539896641e-02
5.186223008116885164e-02
-2.594733985633731685e-02
3.822864974982821684e-02
-6.238856924129316389e-02
6.048334234527232706e-02
7.202447931407354731e-02
-9.165540287777136641e-02
5.170357150279893121e-02
9.109782611189779639e-03
8.485160067267899509e-02
-2.745333090215239247e-02
-4.199291189072261454e-02
6.059615662386003826e-02
5.272124990888314017e-02
-1.154221534551289410e-02
3.597055094373095147e-02
-9.840911770749037613e-02
-1.657178208605604094e-02
-5.886190383956536182e-02
8.904707681528210850e-02
1.270800559862645673e-01
6.601650292836759581e-02
-5.527294929031696669e-02
5.330585479128998466e-02
2.957904894375558338e-03
7.661775012250589007e-04
5.905226435067170015e-02
-4.681238108049155106e-02
5.688547983767708316e-02
2.893334011805174730e-02
5.237416165529316936e-02
5.192545071970327414e-02
4.707311346415047476e-02
-2.625575334438975603e-02
8.259570066439039793e-02
-1.201896225100475557e-01
-1.642828895916033372e-02
2.968062010314165972e-02
5.821726988953672410e-02
-1.137566909717792202e-01
-1.303631941501207613e-02
-8.533890380227653061e-02
-6.939660442113644578e-02
-5.764960167090103088e-02
1.024685937103330356e-02
2.501462697292166585e-03
1.337884519123890004e-02
-1.138179107001132812e-01
2.208999449818469310e-02
6.036243042083733190e-02
-6.090258827961313876e-02
1.308727927276456988e-02
-7.922154656262239691e-02
-6.378936565131071434e-02
-6.173306734034093857e-03
8.010857622496685149e-02
1.662943713079057320e-02
-5.200021147344049965e-02
8.114388568172394012e-02
3.494270721874022378e-02
3.654178798275886653e-02
-1.343040060555541516e-02
9.335305736353295691e-02
-2.378847513051977544e-02
-5.127905120682489659e-02
-1.345689093576100774e-02
7.599202901144938571e-02
-1.746352150318629740e-02
2.023725482900603015e-02
-4.040404325482777059e-02
-2.696386549832119686e-02
-1.146872535004956339e-01
5.159721449878036659e-02
5.215841767814852203e-03
6.152473033322024276e-02
-1.196712279497884890e-01
-1.545475904197432700e-02
8.056047136498879768e-02
-2.171883911723774055e-02
6.385064617022133404e-02
1.241688646978282920e-02
-6.271775370380634762e-02
-2.928764457299729007e-02
-1.041060530616365332e-01
-4.623018267000934128e-02
-2.323020935183460478e-02
-3.410767105271154953e-03
-1.121216455606633550e-01
-4.947141622359694374e-02
7.729615618461077586e-02
6.972508930536563954e-02
-1.041588238675238004e-01
2.258622849859854773e-02
-1.626377640456421608e-02
-1.174263629905126921e-01
-1.147315942414822987e-01
6.491612854684093714e-02
-4.160856764488129371e-05
5.526048435223759880e-02
-5.409827510255044462e-04
-1.131109115938792528e-02
-1.872161406588697397e-02
1.320153810201348810e-01
2.528200846965516710e-02
-7.271680962004245519e-02
7.888102271950350741e-02
-8.403393782805557155e-02
2.559909259905413653e-02
-1.487812103226876861e-02
-1.500104737136397776e-02
-8.451289751723968513e-02
-2.040001995107877317e-02
8.091582635369290455e-02
-1.579714695082959711e-02
6.237071629462056111e-04
7.052493329143955103e-02
4.263161917212231200e-02
1.137024416396297498e-02
-6.177435667078002429e-02
-7.103365371844799769e-02
-5.982202921149593067e-02
6.526577907415430368e-02
4.763127959204237205e-02
-1.184572284663659575e-01
4.334093063945577279e-02
1.301865746115639377e-02
1.145223934585019171e-01
-1.096463495914301069e-02
2.667106320203232322e-02
-6.249631499193199213e-02
-8.704801957976113225e-02
3.066261282531633145e-02
4.214147437931924783e-02
-3.178298448320302644e-02
3.020217983380332760e-02
-1.032859871170166144e-01
-6.851953373032550199e-02
-8.331766525516881572e-02
4.852853937592641748e-02
7.884245618754695539e-02
3.392236749832116399e-03
2.062360400216982706e-02
-9.958161745337860971e-02
-4.430904324750811578e-03
-4.343523527481332747e-02
7.354156930675517789e-02
-1.169662956851253918e-02
6.478667530989171142e-02
-6.088274345982480629e-02
-4.047573721346605334e-03
-2.602965341918403105e-02
-4.646648633992690736e-02
3.135763253125466860e-02
-9.876535319658479029e-02
3.898402051793688899e-02
-7.259244997276749489e-02
-5.720265921050087963e-04
4.007572143990118657e-02
2.857536684410420455e-02
-3.340860885075709608e-02
5.846142582867250304e-02
-6.327853978299219362e-02
5.561269470593294129e-02
5.145191960465497760e-02
6.564047582022314309e-02
-5.547661246674207708e-02
-2.537105699437040840e-02
-5.983424855902915590e-02
-3.268184934522880281e-02
-6.587512247152764455e-02
-8.544919120774979726e-02
4.378826354157593775e-02
4.226752978422894380e-02
3.410825987658052533e-02
8.134664641467534429e-02
-3.567941171938337347e-02
-1.125121108127895148e-01
5.084899735796403336e-03
8.499226674184388874e-02
2.110532542154907373e-03
-1.178303925831160476e-01
-1.357666068567366276e-02
-9.328050188538009047e-02
2.022783313091243429e-02
7.712692846067405184e-02
2.176420152756043322e-02
6.653053516913837173e-02
-1.813622251463010634e-02
2.443003986409103198e-02
-2.421282835208504736e-02
7.779113889248220892e-02
-2.073209162006483045e-02
1.940509657036814870e-02
-9.488040630616051407e-02
-6.654556970656638759e-02
2.321686831543656737e-02
4.233456471041904118e-02
5.524434530636033319e-02
1.068818590083504307e-02
5.778446441114106630e-03
4.977529408070829192e-02
-5.201919569409380051e-03
6.589110399739178670e-02
6.912000233510684488e-02
1.308739370749518148e-02
-2.039999706609386954e-02
-6.920660590510860355e-02
2.674892346047218986e-03
7.447986378482106956e-03
5.026865920347119154e-02
-8.006126042162176049e-02
-7.985825737413397574e-02
-3.779219473750845132e-02
6.767428262411108453e-02
3.611138487721409114e-03
4.183169276702083939e-02
-9.737375890208548740e-03
-3.875670449599304124e-02
-6.941802932500190648e-02
-1.191814041490424358e-02
6.659596768402402389e-02
-7.878484239089406094e-03
-2.723332855434241421e-03
-5.940617553655321709e-02
-1.494051010932887294e-02
-2.773822066872005249e-02
-2.360721942382336055e-02
-5.294730847457531503e-02
3.973341931068079258e-02
-3.166385412803104232e-02
6.618563217523736053e-02
1.152795767660038002e-02
-3.872291436467183157e-02
-4.935536434421781450e-03
2.861737952406553931e-02
-1.688912935882908306e-01
1.153861798309442459e-02
-1.136600096932523923e-01
7.640654436784476145e-02
6.200335319665128964e-02
-6.721254646924516851e-02
-2.356679626922278739e-02
6.844459989187573479e-02
-1.904838080665979469e-02
9.995377037484572125e-02
6.679186375044707247e-02
3.802782736813176828e-02
-8.106604040259053623e-02
5.482057708924431561e-02
6.783182010888027039e-03
4.439889243940485508e-02
4.388789352249972825e-02
2.549787929111478960e-02
-1.033281878194490799e-01
3.586368110335515225e-02
-6.006597238757838131e-02
1.114719034757219798e-02
9.943111843584105918e-04
-3.147645187794695376e-02
-8.701730661553296053e-02
8.540786759025356320e-03
-5.911354816215073915e-02
-3.087086722056349430e-02
2.527541831550201776e-02
-4.803068736803223215e-02
-1.159594540755601172e-01
-3.360495945049994659e-02
-3.352027246320894022e-02
1.132831435983595036e-01
7.508398716925764049e-02
-1.395891744822449487e-01
-1.419722749488914471e-01
-1.544304201148931008e-02
2.602033073108780611e-02
1.075325072779903003e-02
5.873713294661507545e-02
-3.087903377440965463e-02
-6.882332703926538620e-02
1.658461404650497101e-03
2.001003356989202592e-02
6.252308126449096504e-02
4.797226879231709061e-03
-8.602636083661904798e-02
1.476022975568307138e-02
2.194619009785472169e-02
-7.709377106622045117e-02
4.439276510174231666e-02
3.848254341590127275e-02
-6.279937223346349073e-02
3.689844092032314865e-02
-1.277590428160753633e-01
-1.140015816926773229e-01
8.858828550890031350e-02
-2.190583450696310594e-02
-3.800536623600954400e-02
5.939875873104197290e-02
4.771560800298484811e-02
-8.813095777858018232e-02
-3.925099338924567527e-02
2.820284962659215869e-02
3.754099160331075130e-02
1.095072857560267041e-03
-3.450856834027486719e-02
-1.053184470981434750e-01
-3.399564750737520125e-02
-9.320651881151592599e-02
-5.967255592779890233e-02
-7.531268105476560115e-02
-8.116205647772109510e-02
6.108112366224920792e-02
1.246941382126841302e-01
-5.162361782265802862e-02
-8.841318593720949581e-02
4.512973695934698742e-02
-9.940453285083086787e-02
-9.040371841130115382e-02
1.386598436063625761e-01
1.143574840149887972e-01
-5.147203208914421721e-03
-1.290322951295006237e-01
-3.691987852875144166e-02
2.144919275927431243e-02
1.864946595159316586e-02
-4.802924584805300101e-02
3.022961529880509313e-02
-8.234526890974713104e-03
-7.792265966076979133e-02
1.042952490747335245e-02
-8.889830481136665186e-02
1.166958880331489361e-02
-1.424808039883414257e-01
-4.916157614970492057e-03
-1.343342370230303506e-01
-7.461546699706272934e-02
7.618479411663509060e-02
3.002381102521885572e-02
-2.490132622280924121e-02
7.540632057615753725e-02
-4.336173933950814019e-02
5.857666620846715966e-02
-3.712451729965218772e-02
6.313400718844416545e-03
-3.299168615528230708e-02
-9.610238152975117062e-03
-1.146804422145048657e-01
-6.469388135964777853e-02
1.385766032057932085e-01
-4.406755970152284596e-02
-3.066814886595441852e-02
2.817038600251357133e-02
4.976517398163976535e-02
1.083923884183371836e-02
-3.839090635987017774e-02
-7.659368733731479473e-02
-2.103474080331663512e-02
1.957607109679274093e-02
-3.945678934306703933e-04
-5.434063721458256419e-02
1.046311166842582574e-01
5.432005711196562919e-02
-4.659934234776082380e-03
1.174203627745116010e-02
-7.728566515328485695e-03
-1.039343325477622365e-03
-1.136061310076231928e-01
-4.513847416527973222e-02
-1.106182537265902044e-01
4.958272652142876186e-02
-7.086775539754870679e-02
4.753955263225886213e-02
-5.872097923672789377e-02
2.224772593393137265e-02
-9.586778323827671935e-03
1.958075595151530235e-02
1.839970799453108027e-02
-8.200762681544507271e-02
2.147115781707150187e-02
4.648681522224609730e-02
-7.057007389311860390e-02
-1.633772629917756847e-02
-7.614191254812938126e-02
-3.984399621030212946e-02
9.086135762726342546e-02
-7.132695840804510745e-02
-1.165755172978423237e-01
9.347839473973566793e-02
5.137866054105696273e-02
-5.253097635310483710e-02
-6.929501217713120165e-02
9.119345975102917390e-02
4.140278861668755805e-02
8.456895194290092732e-02
7.844711653214142544e-02
8.798121060257663162e-02
1.308527336473550295e-01
2.400016568659757779e-02
-1.025246604754602997e-01
4.967709595703887968e-03
3.747329558918924969e-02
-3.108404242611742530e-02
-7.959475597998739993e-02
-4.550844471940881930e-02
2.675030881304244976e-02
-1.091422256878069562e-02
1.473200587481547294e-02
-4.127594080391453618e-02
-5.220537974920085034e-02
-6.831028240260474116e-02
-3.978532519867609973e-02
-6.840023753018663333e-02
-6.567933787532845291e-02
-6.336764852002367554e-02
2.728301942844742894e-02
4.506035372057554111e-02
6.070313029395219689e-02
-1.998953509854138957e-02
-5.829127979597865938e-02
-2.727295007957316469e-02
-9.222070988220844312e-03
-9.000582186619476843e-02
-1.266062925598510636e-01
8.653229998706676862e-02
-5.339485838902567616e-02
-1.153056479547053953e-01
-7.691433175902339693e-03
-3.334146037785869210e-02
-1.692957701646284965e-02
-1.116205699162936722e-02
-1.117865041288722446e-02
1.223311011877785681e-01
2.440750740191747516e-03
-8.812733430992343575e-02
-1.964526348160487018e-02
-8.196135505152270240e-02
-7.599414229432514822e-02
-4.423064727062919060e-02
-8.109126251581685874e-02
2.529456951438125573e-02
5.727366847174461539e-02
1.803506718282643986e-02
-4.923918731738290838e-03
-1.300777361828421574e-02
8.821651168813900157e-02
-9.939159363127832852e-03
-7.123436490089099515e-02
-5.995740342380811994e-02
7.211600152537935016e-02
-6.707624865121675217e-02
1.960169453665149344e-02
-1.197144197215076027e-02
6.140780438567997046e-02
-6.870757484643362500e-02
3.959407401981842461e-02
1.260402063581938237e-01
-6.127785099345267432e-03
6.171331357281114455e-02
5.795042844784905472e-02
-1.773885463298651918e-02
2.410778659220994338e-02
6.470715919934937055e-02
-9.365575484951610408e-02
6.875116570601585639e-03
4.409857284977328207e-02
-3.217738496105704282e-02
2.455688135505191064e-02
-2.241895796441368410e-02
7.105093579073963606e-02
-2.493412773510232314e-02
-1.014446746091615531e-01
7.011330726121010881e-02
5.387446458827543222e-02
-1.017468937481880858e-02
-1.169408961421094205e-02
2.375264933826569738e-02
7.110869591725965666e-02
-4.134025205994462659e-02
-6.552702673313136328e-02
-1.383325580643558241e-02
-1.631882172785676169e-02
-1.006891247361715522e-02
6.639152050026158290e-03
7.033864700100447842e-02
-7.082168609053988984e-02
-8.651833581627138559e-02
-4.402495245968269383e-02
-7.011201835111367797e-02
-9.187066818484657463e-03
1.270448538646896247e-02
-4.400926331174286055e-02
9.355146599890173942e-02
8.092241890395732162e-02
-1.183688094280970909e-01
1.003287677989529170e-01
2.278525363885459953e-02
6.300502789383626012e-02
-8.070571005853378888e-02
5.124617858124198150e-02
8.328404426023909568e-02
-1.142220694215754367e-01
-1.296027254837787100e-02
7.510859049348582450e-02
-4.936206437073732689e-02
2.356176623391507963e-02
6.480628341747768362e-02
-3.525981265291847078e-02
-5.003391176076503466e-03
-4.918251998198500119e-02
2.816140618065010592e-02
5.984713243753156386e-02
1.900929135123890709e-02
-5.416449056717502486e-02
-1.009332704562101862e-01
-4.969697866349885584e-02
-1.093176036686804159e-01
8.737187911262478401e-02
1.111304551098215264e-02
1.484650335051659609e-01
-4.915349776511757085e-02
1.718888423366657717e-02
-6.277423564709785908e-02
-6.023722518336996345e-02
-1.066019531593356690e-01
-6.791213404546844745e-02
-9.571088070664148309e-03
-5.165520787176563350e-03
5.539790539344125950e-03
4.980431873363068938e-03
-4.351992313369895671e-02
9.432356721425545765e-02
-7.430655727718264714e-02
-4.762290265018598312e-02
-6.041231647147046052e-02
8.119473004789007353e-02
4.401199008045834221e-02
1.977650383567639697e-02
-3.511449832770545398e-02
-9.998487670586339582e-02
-1.957574320415835477e-03
-5.170294804680006934e-02
-8.785473737976895459e-02
2.167471096791614982e-02
-9.992538375858511790e-02
5.765894651012026806e-02
-4.931480229934261106e-02
7.642178638601485052e-02
-6.141795879041984929e-02
6.327731667935676541e-02
-7.779062807497327814e-02
-5.217360926409696231e-02
-5.416635141132604414e-02
-4.094818560880889545e-03
2.993940877386947613e-02
-1.139203940418586636e-01
-4.368661122522542184e-02
-1.760897211037168106e-02
1.928625310646138805e-02
6.546873701242018895e-02
6.629499544111314147e-02
-1.350764766569780700e-02
-7.404085832637109788e-02
-6.603597737315373972e-02
8.321542910239447532e-02
-5.739406397752731814e-02
-2.122494916376575433e-02
-3.493751728885353264e-02
9.118736417966204211e-02
-9.235486742882742517e-02
8.210089627757673376e-04
4.790648918106232834e-02
-5.041414875823123365e-02
-4.218249526641620895e-02
-8.751959618516040595e-02
2.102499531888243206e-02
6.815288619547399396e-02
9.741595548092755671e-03
-1.574069696081418406e-03
3.392851452201246787e-02
-9.314082934101382272e-02
-9.225979412193513474e-02
-6.603918884520168509e-02
4.591094903724009246e-02
6.020117302164832568e-02
1.694206623429371245e-03
7.829863920323629212e-02
-6.151472030299006549e-02
5.731904060166852916e-02
-3.045089974903999065e-03
-1.280195077817490035e-01
-1.350721833644304669e-02
-3.339879575981417881e-02
1.167399111616823498e-01
4.307605722519988745e-02
1.272926032466820401e-01
7.749745146470901624e-02
-9.360108096277108825e-02
-1.254922376268303996e-01
-1.192816718843719807e-02
5.544445046353952550e-02
9.390213978027085739e-02
-1.246918955533198869e-01
6.546606558955071764e-02
-6.754830078346021893e-02
-2.744190450073004384e-02
7.880829620546714320e-02
4.537446569633861448e-02
-2.134993198621840289e-03
2.427774195596991980e-02
-9.748218140183619040e-02
2.899553149472910204e-03
1.946637142942139395e-02
-6.802061399813641440e-02
-2.454219885227227130e-02
-4.052898023949866313e-02
1.229464863720894016e-02
1.779422463802899368e-01
6.146176959058127082e-02
9.708171581984326171e-02
-1.800066230317513144e-02
-1.050299103853182120e-01
-1.060247927702680781e-01
5.790938675370189276e-02
2.097260804119504413e-02
-5.295412811861648777e-02
-1.792374754385026581e-01
-7.254642843377134831e-02
-8.805888617950800856e-02
1.036376639876431527e-01
3.690059783755069572e-02
3.961541472018837058e-03
5.761203509058118732e-02
6.433027552461323406e-02
8.569336161544640826e-03
-5.619598198969918967e-02
2.317781725594213887e-02
2.837011539965064374e-02
-1.816358713907646749e-02
-1.175215681395401918e-01
-6.971035866686384197e-02
1.332341812062190316e-02
-9.811865654971312078e-02
8.056066000229709922e-02
-5.363411962923403560e-03
-4.853674018214578639e-02
-4.910798634768569204e-02
4.634036928944259420e-02
-1.937221007915870472e-02
1.207752948829431267e-01
-1.182235694245829527e-01
-1.050024200096518617e-01
2.971087113455781609e-02
7.301695955142910310e-02
3.955593453590675740e-02
8.524460707041009444e-02
-5.876814303362777776e-03
1.084167242737421426e-02
-5.637186711930655680e-02
5.124423592552840301e-02
1.401440954409131356e-01
1.154629863857094402e-01
5.788260364941998776e-02
-1.337179319770769592e-01
-1.007235416651984516e-01
7.002757029655082288e-02
-8.760246112668042609e-03
-1.877370231251476382e-02
7.167734725569203935e-02
6.306694959116478094e-02
-5.681679310058117445e-03
-3.174558960863722856e-02
7.511963279814537486e-02
1.116615513175749780e-01
-1.032562948901811495e-01
-1.228810178231366790e-01
5.026425669020639225e-02
-4.435870354170439595e-02
7.199541310043350295e-02
-6.552593310060260412e-02
8.290158155001350893e-02
-7.413245372027556235e-02
1.160639337337665816e-03
5.731615359437809698e-02
3.020232658802792999e-02
-3.611311611928125914e-02
2.967557674305459133e-03
4.564486453770244534e-02
6.323459123043262409e-02
-7.575360855583575248e-02
2.242399039116196868e-02
1.166192916032825211e-02
6.876039862859693874e-02
-2.883715106845271409e-02
5.383368761584125112e-02
6.020548603857774246e-03
2.898428975646413774e-02
7.464704656109880099e-02
-9.537769666730203100e-02
4.119209395691937961e-03
1.581524697705326624e-02
-6.003488443230948872e-03
1.268502285941778239e-02
-2.830198532039274531e-02
-1.589062086070668067e-02
-3.078709098586689466e-02
-5.794118711350962347e-02
-7.683565463023477038e-02
1.404508036248614256e-01
1.241431203458605720e-01
5.892452507169931158e-02
-1.244886344482543095e-01
-2.269813703734609514e-02
7.857171128398339477e-02
-4.581046713098448075e-02
3.357489458800566595e-02
-1.712705181897927059e-02
-3.188192364769511927e-02
-8.534096991092756171e-03
4.645331910967843286e-02
6.441901068798250307e-02
1.604372718332332248e-02
2.934048810931179016e-02
-8.078466555668205318e-02
-1.114699930132640321e-01
-8.466964645731028805e-02
-8.597221360983320348e-02
2.495920140448527544e-02
7.431979526555562710e-02
1.683409280718384162e-03
-1.027099369622053032e-01
-3.654229673161199510e-02
-1.825573181051149199e-02
7.176765280881333697e-02
7.067762697470599507e-03
-3.971327937847867612e-02
3.629459894875903397e-02
-2.100962810903906491e-02
1.001050152125684128e-02
-3.465700571348915172e-03
1.781725823393028735e-02
-5.673099741747544139e-02
6.639520266100837342e-02
-9.773143385207293254e-02
-2.055386581550907449e-02
-2.215416532033473093e-02
-7.345104342102518058e-02
1.749314690518742610e-02
-3.158591070287564140e-02
6.796606905122593023e-02
-9.442090246427412015e-02
-1.011016994690434601e-01
1.185659779512785589e-01
-1.136534489578635010e-01
-1.807074464003623898e-02
5.462135963132246086e-02
1.339895225036697446e-01
-1.810342948041933353e-02
-8.531141678871315831e-03
4.404756902487146769e-02
5.587853267317081929e-02
3.979536039232742239e-02
-2.206731912242768101e-02
4.329511962696376559e-02
4.749090589917698974e-03
6.287018028206907416e-02
2.718247905420712734e-02
7.666420387791518520e-02
9.545140019803101394e-02
2.447582861753998251e-03
5.928449781880430064e-02
-5.989515724822692261e-02
-7.068881252383921177e-02
5.818200427433508487e-02
3.330692366638442203e-02
1.742434773745197424e-02
-2.222205602401835026e-02
8.286902527499381832e-02
-3.679679639519112515e-03
-7.117593585326525973e-02
-8.261769978588798941e-03
5.879950291166242266e-03
2.879645191805866103e-02
2.848661578384532184e-02
-1.998715557908189652e-02
3.332827523323975832e-02
-1.199248375199562233e-01
-9.787000937824721913e-02
-5.965618569805721493e-03
6.570170035427293220e-02
-8.404586395948714095e-02
-4.726200078773996893e-02
2.247629917114041080e-03
-7.712129404913646569e-02
6.747782324559099820e-02
-8.953666459335711536e-02
-3.478676905791013019e-02
-4.767897162147411577e-02
1.069106889475983022e-02
-2.454667954032380833e-02
6.231090236720272096e-02
5.713005608701708649e-02
5.297121402696840231e-02
-6.468506582368030444e-02
4.159808954038832912e-02
-1.118751950826420843e-01
-4.357045762396457092e-03
-1.154361563211600689e-01
2.302524286428736522e-02
7.208816950900043437e-03
-3.354108539146546941e-02
3.038272371903226812e-02
-3.239015221556278828e-02
-1.063140382548021651e-01
6.381184726288202658e-02
-6.533597177770010013e-03
-5.075222517666158617e-02
3.516023208608357736e-02
1.220965824870380231e-02
-1.633908959277920875e-02
5.622474086598183707e-02
4.736951206196506059e-02
1.637248471741165057e-02
6.211305716018406670e-02
2.520121835710291414e-02
-2.825492724011553422e-02
-3.971646362167008393e-02
2.580573891096552691e-02
-7.694782806913801673e-04
2.305463638270802314e-03
3.122302127281683867e-02
-3.446035255545173287e-02
8.805644080730309908e-02
1.947085365558296963e-02
-7.127752314986629534e-02
-3.790548297875515060e-02
-2.618855175666736160e-02
1.064500129669291584e-01
-1.163504421535800359e-01
-1.067204448588700838e-01
3.308895341325097939e-02
-5.322702979422392483e-03
6.354861459897791220e-02
1.739888628775758395e-02
-3.853024515265910527e-02
-5.842543276290015214e-02
-7.203176242190208189e-02
-6.492055670415891599e-02
5.156222076076760752e-02
6.299735863370603192e-03
2.324947211243675108e-02
3.993168801544415975e-03
2.196499216721082681e-03
6.971987484780980959e-02
8.019791278781161770e-02
-1.128924851770898713e-01
6.691521485524218327e-02
1.535174201111435231e-02
-1.145285586287304730e-01
8.000149725127493616e-02
-4.865277106481490088e-02
5.568075207443087815e-02
6.101962670394537464e-02
5.128134552786388356e-02
1.138774365721506587e-01
9.844000794197239543e-03
-4.063080622109697254e-02
-1.048727993725632329e-01
-1.905674662834893826e-02
-4.737762702875007725e-02
6.737366701457882245e-02
-3.144253025810329200e-02
-8.628761329433087823e-02
-4.324868564431805923e-02
6.349936071425892059e-02
-3.481954960746249522e-02
-1.222148042000635454e-01
3.066944773470758542e-02
5.301948979029069003e-02
8.586565267935743206e-02
-3.962430529141281604e-02
-1.386575145799965048e-01
-5.689594965251840858e-02
6.674354310526478540e-02
-1.709364625691747047e-02
5.612964261999159321e-02
6.162907680429565577e-03
-7.087629913382847979e-02
8.719899495368184372e-02
1.285429758824706559e-01
-7.544253067505897470e-02
-2.003487658243706393e-02
4.628782709999525180e-02
-3.482822442639399441e-02
-4.888796294534950709e-02
-6.999119502857729241e-03
-2.076781301946073813e-02
-3.788180278084288255e-02
-2.689691501178165245e-02
-1.272893939137979304e-02
-7.561976643386122965e-02
-2.503269666631618290e-02
-9.115530422932524579e-02
3.613874889716671424e-02
-4.104647560027692432e-02
4.507195750002642581e-02
-4.766108353845296963e-02
8.282096160712253130e-02
6.650593597806428448e-02
1.756139870560179117e-02
1.269264432252235723e-03
-5.942294752901310789e-02
5.698039060159707653e-02
3.838511532612258470e-02
-1.653182255499307043e-02
1.031146363938262728e-01
2.005758497498586011e-03
-1.334100040604854487e-01
-6.808750084252315760e-02
-5.463704432639306108e-02
-9.290140808190629554e-03
5.881550384427020745e-02
-1.386651797131192333e-02
-1.286545609200847873e-01
-3.234255974784500630e-03
2.319487633617930630e-02
2.525207814706089716e-03
1.706146262680521553e-01
-4.707063963001182488e-02
-1.075242711187827105e-01
2.784532023343063312e-03
6.617071178511442497e-02
-7.515366006269823262e-02
3.966221992157429460e-02
-5.624309810612647398e-02
-1.862292601959268223e-03
1.022195630939867934e-02
-5.430670156591886621e-02
8.599979768122457957e-02
1.291461810163209711e-01
1.165388946701590989e-01
-7.813645585274098249e-02
3.348142697612271207e-02
-5.892254000307135808e-02
-8.659506940329479707e-02
-1.433904309137367349e-02
-4.917571005363144399e-02
1.352355203505467042e-02
-3.361941224248023163e-02
3.517526346103178048e-02
-3.198631802615729131e-02
7.201051783465272672e-03
5.203466608675737931e-02
5.418971163911641409e-02
5.632196029978455559e-02
1.241997157243956845e-01
2.124632856152356558e-02
5.024114752368560172e-02
-1.510057063237385012e-02
-5.418367561173675212e-02
-1.029054823512694367e-01
-1.931640956443340246e-02
-7.579128966190179506e-02
1.582288280240040923e-01
-9.590012064667140755e-04
-5.579371096939417241e-02
2.643397709965917067e-02
5.038169529976696537e-02
-2.838505651773863200e-02
1.506119692542962768e-02
-8.076677006239917078e-02
6.891747164425428285e-02
-7.500398746376049641e-02
9.929334007138997456e-03
-1.171326261420604364e-01
4.867400720083764343e-02
1.233673089054809248e-02
2.790515784256745666e-02
-2.788079949023004878e-02
7.068100418732607693e-02
-1.914127753400976170e-02
-4.552674964506193273e-02
-2.637648669130498308e-02
4.809463703639992038e-02
7.753838019978905559e-03
5.934866084316834517e-02
-8.974999738247881054e-02
-3.144566698571770597e-02
5.820386890164496591e-02
3.971200312140581168e-02
6.022912377064425921e-02
3.296388400145914416e-02
6.248938365092310265e-02
-2.310576748437608496e-04
-1.122792744718798114e-01
-1.992542160816057964e-02
2.974666817699416800e-03
9.474706563367232479e-03
-3.043479424123685106e-02
3.456193923369665216e-02
6.200083185809336650e-02
7.520341029599041105e-02
1.057752343579059472e-02
-6.180209385755720125e-02
5.901177093845248051e-02
-4.422902672799700757e-02
-9.283812767458755888e-02
5.950586276102207833e-02
-7.395301599852505126e-02
6.937270006645311626e-02
-5.081045235578226377e-02
-7.720091106999191211e-02
5.300608665273023878e-02
-3.792795571137810157e-02
8.360117075417228261e-02
7.207660243635462261e-02
-8.709922240831977081e-02
-3.254321093672838533e-02
-1.063491157120032005e-01
7.275647278245132854e-02
6.741760734638563290e-02
7.810492640158629707e-02
-6.879869837428592705e-02
4.107845147188721874e-02
-2.073801819336307597e-02
-1.882283709092163679e-02
4.449981833139707993e-02
6.493688543495303167e-02
2.634336212592244472e-02
7.003096406310847788e-02
-3.325296069775871000e-02
3.175071438087122278e-02
1.815007008076575251e-02
1.323474338022595231e-01
7.742236897252792460e-02
-5.567371077958865877e-02
9.227661348673704689e-02
5.006740536363185612e-02
7.901570686885626971e-02
1.419188017957859378e-02
-4.490688735174920565e-02
4.618440871463004582e-02
8.808855606224075263e-03
-1.536765999458397126e-02
-3.017648419657919037e-02
9.144710610821613073e-02
4.143776371984971008e-02
1.793442820749685529e-02
6.131387299198478441e-02
2.644402803572275945e-02
3.986093286818732234e-02
-3.422786772342673034e-02
3.261539559391381238e-02
-3.964652280495945848e-03
-6.512585054732123770e-03
2.505667809391031939e-02
1.258356836170444470e-01
1.074995466229211188e-01
-3.601864399977735415e-02
4.776966351752361117e-02
9.992814597119181741e-02
-7.857564289348227538e-02
-8.087786266519354783e-02
-1.343734042542069074e-01
7.190178666064991897e-02
-6.496490802835508394e-02
-4.545257815780604990e-03
-9.955068184551815746e-02
1.069193106392558601e-01
-2.047339197140033915e-02
-3.991174502588351602e-02
3.993005379822722745e-02
-4.379421115481670762e-02
7.288282710861833380e-02
-9.937365366816110213e-02
-9.319416887398686289e-02
7.284486075709128983e-02
-1.268545976108912399e-01
-3.529565781748969511e-02
1.241464418176079290e-02
1.005053253532815355e-01
-1.609108672589146943e-02
-1.355152503579489798e-01
-1.295146460501658825e-01
5.122682645231287774e-02
9.092776144843324471e-02
-7.711994906235809799e-02
1.372286162239500992e-02
1.062315565082444513e-01
2.539913407784313674e-03
3.974045038539331803e-02
2.683252103030926358e-02
3.636919146820656590e-02
-5.599969727101974937e-02
-1.187312836348277251e-01
5.314474617393682293e-02
-3.788314478477960295e-02
7.789601553346599261e-02
3.224918041326628459e-02
-4.725774234917967664e-02
7.834043347928855427e-02
-4.176931229513509980e-02
-9.940856102117863469e-02
-5.998845503273314561e-02
-9.143961502086728893e-03
7.964412070878389149e-02
-8.454972684095887758e-02
-4.171047845772985624e-02
8.215515079171849255e-02
-5.525564827514337606e-03
6.954939541308402008e-03
-9.048412511678793901e-02
-2.804604302147988698e-02
2.176714715524139324e-02
-3.583754220026861420e-02
-4.370812654645074439e-04
-3.117294822995671580e-02
-2.283062349426911997e-02
-8.305666414219775584e-02
-8.662438830577293136e-02
-6.349876155157190005e-03
1.336373228494095594e-02
1.386949752003755441e-02
1.326635957527031069e-02
-5.838307148850276074e-02
-6.393948107247841243e-04
4.240636596313834827e-02
-2.192148924737315902e-02
1.167153639915998603e-01
1.723521564859475247e-02
7.113308879374272142e-02
6.775325256966534260e-02
-1.207663650899020585e-02
-3.731180356403751563e-02
2.383607820677542330e-02
-4.757952780261142517e-02
8.191549887866508839e-02
-3.649733126349009437e-03
-9.585320441929751079e-02
-2.671993680236444107e-04
2.432721508909287816e-02
-7.652925121113543505e-02
-1.220554750575274889e-03
-1.543659062582440492e-03
-5.299081749040285977e-02
5.207959328689362732e-02
-7.507720481432168802e-02
-9.107176081303949844e-02
-6.588194304923832012e-02
4.247917288249353912e-02
6.630008441831050647e-02
7.427183800848578821e-02
1.501521868912940143e-02
-9.463277381484315465e-03
-5.691770678325498017e-02
-6.937627718892171169e-02
4.006800214610777705e-02
8.356213497402785462e-02
-7.022340051459882715e-02
-6.517799106204881510e-02
1.631814530840873306e-03
-1.188964088510351680e-01
-1.090142645274214117e-01
2.593239654256952048e-02
8.479591585631410244e-02
-1.201261850970547634e-01
-5.814995506284956900e-02
-6.016000245099590443e-02
-4.750659461169513126e-02
-4.161058277411001233e-02
5.740908540310894065e-02
4.600335618088629425e-02
-4.474450590813242729e-02
-1.267679130532285703e-02
3.801853700847785539e-02
-4.970983926629614358e-02
-6.761899698571328422e-03
1.202996656856196965e-02
-2.594395923695170039e-02
-6.707410775828077931e-02
-1.066677495489272987e-01
8.827845357553296829e-03
-1.168535939290246684e-01
-4.715633621444217938e-02
8.868654676067594389e-02
1.907087801517479142e-02
3.418063952217885448e-02
-4.062308272551993713e-03
-3.360478170889075536e-03
-1.301592252508261272e-01
-6.128879926073772799e-02
5.346614762593855652e-02
-1.699947797572092401e-03
5.485284369419098777e-02
-7.367530864363407150e-02
2.211235228083475481e-03
3.930825511476904004e-03
-2.621371047878347932e-03
-8.913688870388623842e-02
4.670428419991475011e-02
1.615352564817117142e-02
-1.298521436866766909e-01
-6.785564249377966373e-02
7.193486419092094686e-02
5.865167478333871420e-02
1.025145455488007534e-01
-5.038300109748097833e-02
3.893092589601075335e-03
5.067930407276132615e-02
1.110300672536783106e-01
-2.087739015895183001e-02
-5.650732688407951454e-02
6.323056304105914571e-02
3.946818209727590704e-02
2.754618986916074208e-02
7.426111710008068134e-02
5.448399170496315280e-02
1.421433862462954077e-02
-5.619210769245121945e-02
1.815552342648800183e-03
-4.337653154521770027e-02
2.661132791317071672e-02
4.736668257420338646e-02
-1.142900420787074794e-02
1.038423729530257855e-01
-1.812011753285241306e-02
7.009470251967540866e-02
7.108396163895015774e-02
4.587063522597553678e-02
4.699615648571443122e-02
-8.439569735942654971e-02
-4.908765889003088856e-02
-2.448024026007094428e-02
-8.066766172067563190e-02
-9.521318745787211990e-02
3.716770509270622691e-02
-6.667977333297006592e-02
6.777832243729071775e-03
-5.209735903046518180e-02
7.784780740277598421e-02
3.151645089604707128e-02
-5.030208140806070871e-02
5.865736039577876954e-02
-6.648740619661261397e-02
5.007090139945308965e-02
-6.864989676576865874e-02
-1.495683908581968077e-02
-1.076460861404942987e-01
1.111093793434180382e-01
9.326791256353922366e-02
-4.924803505166110151e-02
-5.180275941549193630e-02
1.956298332844238000e-02
7.681085335467296993e-02
-1.008099467053727577e-01
-6.198341620625533871e-02
-6.721789060744423616e-02
-4.168446784132699701e-02
3.269626856713676866e-02
7.774517100914138043e-03
-9.095140047495885172e-02
9.000002642938520134e-03
2.996357589539600311e-02
6.239849746127375946e-02
1.028705853781148039e-01
6.348279127253485254e-02
-2.321304069117940960e-02
-3.604987092517055597e-02
3.787055376110568666e-02
4.901385215897514913e-02
-3.068104910501474186e-02
-5.615766976641178854e-03
-5.795805328666499279e-02
1.609858114278037849e-02
-3.925090233433570219e-03
2.010984837484400267e-02
2.578482421685841450e-02
-2.228402383286774702e-02
3.267963158811536956e-02
9.471277952757494595e-03
5.648845395434894806e-02
3.091459218778055745e-04
-7.016758397093937616e-02
5.283403776312945582e-02
7.126805636126778976e-02
7.110685621694406988e-02
1.376671196624062454e-01
3.058273142103033054e-02
1.491931476453989824e-01
-1.262207234781844156e-01
3.649765391037649437e-02
5.278011377362105266e-02
5.930154513922729353e-02
-4.401192292741432782e-02
-7.826235317730859120e-02
-8.349253507852558154e-02
-5.697577795857640404e-02
4.274240685741654763e-03
-9.042335263788687377e-03
-4.779583655847248480e-02
1.715993248819263906e-01
1.673068519343292801e-02
1.204239788677066297e-01
6.222081526782496236e-02
-1.217634521761657958e-03
4.916762247489683824e-02
-1.635240610518228985e-02
1.878105264759996618e-02
1.430285932209241218e-01
-4.513948095295092222e-02
-5.338033170685183709e-02
7.456642011271912007e-02
8.344759237930721163e-02
6.194949079283083165e-02
1.587308121228760832e-02
-9.542901573656840941e-02
9.417090985304502060e-02
3.082306262696378474e-02
-6.550292605700054616e-02
1.460642481165947693e-01
1.449810565497969619e-02
4.821717116351113830e-02
-5.803399029952689692e-02
6.549337567697993689e-02
1.355901422950906987e-01
-6.813068630078232546e-02
5.278475759527418570e-02
-6.556336068801861539e-02
3.768216372926627006e-02
1.256967309868975979e-01
-3.580637656750085274e-02
5.736913008618225313e-02
1.423704330524055151e-01
-3.609330159658521997e-02
1.469913848744729655e-02
1.167516581762738509e-01
6.259792982380764544e-03
4.203471619602432152e-02
4.129469311956859151e-02
5.991304997463015036e-02
-2.409446183844450584e-02
-1.848671573564311318e-02
-1.017254105645138268e-01
-6.214185198961101608e-03
1.007629888538687096e-01
-6.560802987933091190e-02
-7.504042239703236084e-02
-1.026965185211392712e-01
7.355840129798861537e-02
-7.428832544920892060e-03
1.828892385049575055e-03
-3.394641733476102402e-02
3.711984847824525979e-02
-6.035471759143511833e-02
-4.015163464634283197e-02
6.524253936231673434e-02
1.032208251479217187e-01
-5.564553378868888900e-02
4.278403201913164727e-02
-3.610722056041270472e-02
9.113236501058610828e-02
5.388890658927102117e-02
-7.138932104919157307e-02
1.504331660987176175e-02
2.705634509933836640e-02
-2.453136689239341500e-02
-5.676770622268364347e-02
8.722094482650130653e-02
1.020649335069496594e-01
1.673355530958239466e-03
-1.058837360494605112e-01
-5.097969085549891588e-02
5.401879075064427299e-02
4.795832430214522213e-02
-5.311952994300348646e-02
1.150523958905651373e-01
-6.108522706843837885e-02
-5.311942115672091402e-02
-4.301043239335702179e-02
-1.555322909786620300e-02
1.353751839508297340e-02
4.228757049760056841e-02
8.162521541781765644e-02
3.912986578890727263e-02
-5.484844827761271163e-02
5.405074143934666432e-03
5.217123349063774312e-02
9.795533342856513337e-02
4.996850216315750631e-02
-1.749690609608366837e-02
3.811867872172627902e-02
1.650225057692218580e-03
1.022726692722445291e-01
1.262828151682230671e-01
-3.291479878419233812e-02
-7.103862865017701589e-02
-7.630065254501758754e-04
1.215364810537863938e-01
2.975552924316119535e-02
9.199289537763986890e-02
1.412824651929082791e-02
1.247574058855035334e-02
-9.706519450137295058e-02
4.304021344994322061e-03
7.730829566175004275e-02
2.512214597747487385e-02
-3.881257673005877179e-02
-2.511958847631501346e-02
1.561394267078223055e-02
3.768254909328910135e-02
6.567194747555579748e-02
4.004106067606539449e-02
6.202062242477993093e-02
6.802696147715214803e-02
2.561117065581673333e-02
9.715473633612992446e-03
-5.358528466923385969e-02
9.422298702774803414e-02
3.685200323236133974e-02
-9.164292888208830368e-03
-3.487948261355267726e-02
1.061588406162905923e-01
-7.082607506411404963e-02
7.215998686309303689e-02
3.207310661594267587e-02
-7.687594169970907165e-02
5.878361575443342979e-02
-4.224448220171030804e-02
5.415564194736560005e-02
5.513307285590630935e-02
-4.162544540987575536e-02
-4.440240685225654155e-02
-1.959150352956104055e-02
5.068488722982515682e-02
1.585901377243735186e-02
5.753000655076474269e-03
-2.620252397960129431e-02
-1.913014517032407269e-01
4.440794449835583357e-02
-5.069299559072984462e-02
-3.356462375657622010e-02
-1.650511994311120237e-02
-6.655306503669324025e-02
-7.496443947347183889e-02
7.920685010176559127e-02
4.794400327729106404e-02
-4.730538906149266143e-02
-1.787500310990463095e-02
-5.923999213833035238e-02
2.045017896408221278e-02
-8.526583381742561252e-02
8.129926720979667454e-03
-6.480643369763208761e-02
7.944748634723086331e-03
-7.421738029391669600e-02
-4.273004622452108298e-02
-1.908849591108327179e-02
-3.636847831748389603e-02
6.420409230662742217e-02
1.933941563338507572e-02
9.692547347828749105e-02
1.086995345487408969e-02
1.810687571968431359e-02
-8.750556372001713767e-02
-2.378914655605150058e-02
1.401557225471172612e-02
6.627263928334017895e-02
-2.532878700973833358e-02
-8.224576363901874715e-03
-7.771788635295800995e-02
-8.098961691269743191e-02
1.394281445801360542e-01
4.223201748053558024e-02
2.831226400690422737e-02
-9.650735107559464676e-02
-9.022583171398725760e-03
7.095009382734299326e-03
-8.584644090606878553e-02
-5.559626221321316286e-02
-4.325379135492905813e-02
-5.273438580228117373e-03
8.924243888030959637e-02
-3.914964115757766511e-02
1.077890242091093381e-01
-2.050123294870147272e-02
-5.354625786932662272e-03
-9.562146962073954023e-03
-6.987705401530832326e-03
1.234321293805785286e-01
-9.485575609856662649e-02
-4.043220169288783139e-02
2.467237226547655884e-02
5.444754093849737270e-02
8.013852325684757416e-02
1.100447729777000692e-02
-3.231817903662401181e-02
-3.959593722678346472e-02
-1.130485002777496667e-01
-2.308102508916482637e-02
-2.714230011395891637e-02
1.043319918780627326e-01
8.450461322186668400e-02
6.111509775536840688e-02
-5.169052382644512972e-02
-5.697792716459549461e-02
-8.853071065473744339e-02
-1.102303751956144190e-01
9.378984016137588420e-02
6.861516116266151710e-02
1.875037602087452696e-02
6.783061796125598730e-02
7.808737200172584381e-02
3.208202073180056735e-02
-1.035230419715100630e-01
-5.845581168385690501e-02
-1.103633111017267576e-01
-9.981077558498191449e-02
-2.225039734236588032e-02
3.525629008796907909e-02
7.277406199440097923e-02
1.091926258561553426e-01
-4.382469486788956314e-02
-8.717954228674859585e-02
2.335835326442668378e-02
4.563082543206812419e-02
-3.296679094116692493e-02
-7.698072854392092046e-02
4.938755476810297029e-02
-4.070449124667518265e-02
-4.989166394145251593e-02
-6.759629734667042811e-02
-5.124439595249271479e-02
9.805585480738915338e-02
-4.909735824191965858e-02
-4.383510506303137100e-02
-9.589441158484802996e-02
-3.732254195528801610e-02
6.416648330643590081e-02
5.950902347233052309e-02
-8.440783591280802411e-02
6.046294348988643513e-02
2.093647242845758302e-02
-1.307170672427224352e-02
-6.517393754597054778e-02
-6.975709583261245628e-02
6.754140169718399200e-02
-5.692451498008489069e-02
-9.059860774152652882e-03
-3.895148305558696761e-02
2.002657335680763789e-02
2.364159957282209890e-03
-2.157568235619038155e-02
9.220953199374522583e-03
-9.653983398708942260e-03
-3.666745987492904535e-02
-9.621380137268763233e-02
9.118767047362917599e-02
3.985281437419169182e-02
-8.237175509690265740e-02
5.370590714188040737e-02
4.087580065579389521e-02
1.277257103355331283e-02
-5.204013332034317096e-02
-2.366621933124741020e-02
8.257866146750911240e-02
1.185395393428128608e-01
2.717170493615722257e-02
4.251634514739541931e-02
2.313245733714825586e-02
9.911017477942471454e-02
-5.404786907478684177e-02
1.088860307954915563e-01
-3.791968535637603444e-02
-3.458574549351625671e-02
-1.131562042582571204e-01
9.265254679009311822e-02
1.407193436831616525e-02
-4.449838388873049444e-02
4.538719756110511788e-02
2.113789935197308775e-02
-1.053440877063065509e-02
-1.750568035287815641e-02
-7.705282879624376913e-02
-8.961361377547333307e-02
9.972514141915908570e-02
2.365758112837011706e-02
1.728635074431856752e-02
-3.949440906954407998e-02
2.276960059108407500e-02
-1.239297719175527432e-02
-1.113942496152670880e-01
1.084450731073802361e-02
3.597125918818987883e-02
-4.646021814531410381e-03
4.369590231926206991e-02
-9.153372962953920666e-02
-9.066028514616024381e-02
-9.472478921194505547e-03
-1.009521212233265193e-02
1.143593620808119327e-01
3.374594223810158805e-02
-2.090250929211518935e-02
1.234709635243183001e-01
8.336483386047168626e-03
2.573788782910039347e-02
-2.396881981789503874e-02
-9.144734586855132741e-02
-3.152037541322528363e-02
-4.767101140290094796e-02
6.238814064920098629e-02
-5.393306137140076173e-02
-1.052873288201835317e-01
-8.605955851410238000e-02
7.404972446424620824e-02
-4.524221009461581317e-02
5.307893486091179447e-02
-1.171135863327446014e-01
-2.123015224122428574e-02
-5.688909740648127877e-02
-1.303367201148094012e-01
-1.381649685135157360e-02
-3.234263471390010775e-02
-1.285449986154686974e-01
-6.610118412450748104e-02
3.261226760072235067e-03
9.643980754866333200e-04
-7.418898621600074350e-02
7.336159691740873345e-02
-6.871452917213190237e-02
-5.082956390899551896e-02
4.909852626950834964e-02
-3.231591214964518038e-02
7.930461215751702375e-02
-1.016875504952359207e-03
-7.877895516734520487e-02
3.713918453967340189e-02
-3.816232257946553658e-02
6.664749668890425360e-02
1.111998881056344562e-01
9.263825780292092582e-02
-2.391574148410634260e-02
-2.331391943578167009e-02
-1.920019238768068057e-02
-5.004966191716699736e-02
-5.560046564323230939e-02
-8.532526996463037083e-02
1.518004275047981355e-01
4.239458359094249590e-02
-9.704970379444722434e-03
4.376050005991686392e-02
-6.182894065166745501e-02
1.266255874842400417e-02
-6.118624059260074910e-02
-5.294477587029324667e-02
-8.896111926900514624e-03
-8.012829154569672124e-03
1.296610643933800155e-01
2.841455896129577163e-02
1.260490247288613141e-01
7.659418719190827507e-02
3.047873514197107017e-02
1.014687399877829549e-01
1.926394850187892679e-02
2.651265028556392886e-02
8.077246289564621318e-02
1.115478717849809204e-01
-1.068698882015007567e-01
-6.319146367890862703e-02
1.552435882908136285e-02
7.175400645042580294e-02
-1.226555793797996646e-01
3.360218239251701669e-03
2.744811854662956851e-02
1.325454425561195249e-01
3.058351702380993488e-04
-1.324122558115813642e-01
7.380556021627859842e-02
-1.751443948706522813e-02
5.289048829276651181e-02
-9.199724022745409124e-02
-6.885665855768846599e-02
3.142295939566591874e-03
5.819543765891802001e-02
-2.906342063174972151e-02
3.074811996154329027e-02
-1.726491158643856175e-02
-3.997078543575762616e-02
6.427104193725849401e-02
-1.168268121234113943e-01
6.274308586763617523e-02
-4.350345686884069668e-02
3.479584521926406410e-02
2.531731676256300870e-02
2.009244683436568410e-02
-7.710511653065565962e-02
-2.697264619377311851e-02
-1.865269772678669613e-02
3.168104998665624561e-02
5.698992374165408326e-02
2.047547551694331100e-02
-1.025015781347831390e-01
2.505141419991170626e-02
-4.005603152011884271e-02
1.061654919069729419e-02
-1.428114344697907143e-02
-4.809252152212106085e-02
-5.739214817322305096e-02
-2.955532362298238236e-02
6.353055108010871588e-02
7.201264857282310694e-02
-7.300192197624687240e-02
-4.017656853533521644e-02
5.473816146112392422e-02
1.031450643026906172e-01
-8.964413016216868368e-02
-7.472534181819046051e-02
7.482351259785051389e-02
7.406213882278978033e-02
7.935463836791648365e-04
-8.020489741042231835e-02
2.705051873581765243e-02
1.247302012231855661e-01
2.872164899258105100e-02
-2.045590022201308755e-02
8.289925929615754585e-02
-3.163062647681235545e-02
-3.620657253357105476e-02
-7.007720308877908588e-02
1.338752772486550002e-01
1.007746062537997617e-01
8.964689318813941904e-03
3.937707035334607475e-02
-1.298035767155366338e-01
-1.575744846262763007e-03
2.913895119979818121e-02
1.145814270188627859e-01
-2.313300364658455247e-02
-6.403979052892765089e-02
-4.473104825211730168e-02
1.053949404451232225e-01
3.255211910480187987e-02
-3.861015345324372849e-02
-9.672663292431864235e-02
-9.923398258782518966e-02
-9.840449080586332123e-03
-2.086143136912741586e-02
-4.898299426110720028e-02
2.237395188635983578e-02
-5.281499845146594985e-02
-3.711161657925582868e-04
-9.983732365262294739e-02
-1.954305067541584062e-02
7.956587794110607514e-02
1.532646671438831210e-01
1.469261547984988259e-01
1.425318293630309895e-02
9.780686534728685877e-02
1.072668726338301959e-01
-6.415113626083541847e-03
8.480187971058046614e-02
-1.853662939397495227e-02
-5.158964581877866634e-02
-9.955034424326809905e-02
-1.281338812177075792e-01
-7.272768918591859810e-02
9.737559899676714870e-02
3.501385909047703693e-02
1.143778880324516078e-01
2.891394434615260009e-02
-3.871645419035007335e-02
-4.213089561136405120e-02
-7.517977916435060470e-02
4.835015514552647858e-02
1.301623088927743484e-02
-1.197750073314790276e-01
-3.836604123515667542e-02
-2.086559216800856764e-03
-5.087730675281010306e-02
6.080080417458107005e-03
1.572004293279895965e-02
2.681830917406688441e-02
7.169564063819919286e-02
-4.073593846479259956e-02
1.272908358892907085e-02
-8.148312623974166002e-02
-2.472583432187707222e-02
5.293274313755211291e-02
8.436937190091750582e-02
5.931850598786745504e-02
4.526351926878221382e-02
-1.631690912445102615e-01
-4.100418902932273513e-02
-1.256143960464167764e-01
5.737824613949045471e-02
5.925593413646742386e-02
3.570056212922570471e-02
5.885796793467699961e-02
-1.363766727699037562e-01
-6.964973013106498523e-02
-5.132755158380135352e-02
1.238361731700459434e-01
2.731897091128775851e-02
3.176905499898112495e-02
3.544586409529494608e-02
4.397785387529432738e-02
-6.563759336601053193e-03
-2.655397029527141115e-02
1.576141944220383131e-02
-7.324820606700949144e-03
-1.296503839049802931e-01
4.986295132860711632e-02
7.149622306605724065e-02
8.362219683596389119e-02
7.483562239883601030e-02
-1.008238617428953154e-01
8.094767455322152139e-02
-5.887415646847070274e-04
-7.163522913116301960e-02
-3.962875000888418930e-03
8.430239185451376960e-02
7.636074274705097198e-02
-6.491529828313771962e-03
-4.068070839862071575e-02
8.568633778312698124e-02
2.434195812129227865e-02
-8.924409982324443824e-02
8.142284388322962307e-02
2.439351999293127779e-02
-9.196334436969240411e-02
2.397477730734416321e-02
-1.139038630099936250e-01
-6.769963412409543690e-02
8.373139461034387332e-02
3.408837324731394530e-02
4.968530364269671540e-02
2.870679307369347621e-02
-5.621521406004788973e-02
-1.814129718836401603e-02
-9.358358698846019896e-02
-2.593924319442395682e-02
6.261353793925879263e-02
2.255780436285153082e-02
-1.284412828789825989e-01
4.962562978516053130e-02
-5.710944954476038921e-02
4.299772817509804612e-02
-1.329230073408560753e-01
-6.823981318689760489e-02
-1.985474064653598367e-02
4.451325985081661107e-02
-5.206019730364188497e-02
2.746429377713863543e-02
2.375264910571705385e-02
-5.019842838847441563e-02
2.530525209789993586e-03
3.253823714222548596e-02
1.420103614219403974e-02
3.076906726076812995e-02
-8.638104443739878791e-02
-4.819700298152770207e-02
-3.612872798297069032e-02
-8.733652625435660288e-02
2.366953623229738762e-02
5.911728761207021149e-02
3.615714526095740317e-02
9.168082427915603960e-02
6.873509639013773709e-02
-1.579773745768878190e-02
6.076938877899823455e-02
4.725927119227803230e-02
-7.881468258944986094e-02
-1.074980329039025018e-01
1.172194086735367236e-01
6.359967973220204129e-02
-8.538535140758801711e-02
-5.249343949605330198e-03
3.364146279922503036e-02
2.540777676742963370e-02
3.781106247795367609e-02
-2.452373425713363572e-02
-1.844263942976979932e-04
-4.485800751392333974e-02
4.745360640890596698e-02
-5.848560685977645390e-02
-6.163355332515225299e-02
-5.891145370360206801e-02
-7.815629936924219090e-02
-1.500090020256328593e-01
2.689702789980797162e-02
-5.133764759521299015e-02
-6.030782829809586132e-02
4.600915237986007850e-02
2.947502818467732585e-02
1.195568473892628103e-01
-1.212195938160392505e-01
-8.293187040886726424e-02
-9.417050541226931054e-03
5.736151262992324196e-02
-1.332522174181107605e-02
-8.906269547834591571e-04
-4.075732781522276027e-02
8.634874292913027882e-02
9.021571511080022851e-03
2.605927257888452850e-02
2.699310104367549923e-02
-4.252272252842730083e-02
3.099731314115821562e-02
6.446822100536761524e-02
1.300582209311943183e-01
1.884510087524697911e-02
-1.228874675294200636e-01
6.434054219689157306e-02
9.329082662932378089e-02
7.971306335687916578e-02
-4.043370549511973028e-02
1.754615687337470267e-02
8.886281136773782618e-02
6.169546663472390280e-02
-1.027464847634594058e-01
1.858334249371401030e-03
8.791790153345368369e-03
-4.842322494909100106e-02
-1.117975667144741891e-01
-5.894217589163691651e-02
-4.270180499425191983e-02
4.997289088739994417e-02
1.311191006137895276e-03
-2.811403053118082668e-02
3.340500712678393797e-02
7.864942222963836049e-02
8.014581273889996582e-02
4.487719542889821722e-02
2.083638322204805701e-02
-6.964521497143953688e-02
-1.214798149432038538e-02
-6.272001915091288127e-02
-8.929799447798569823e-02
7.560714385147287997e-02
-1.284607085229695460e-02
5.930331176318066194e-02
4.497754103916520169e-02
-2.676453080095652845e-03
-5.479726356334928272e-02
4.958070753545065767e-02
9.772717896456496744e-02
1.824693278860464035e-02
-2.455840030132289131e-02
-8.591623722994166934e-02
1.334604464019721083e-02
7.196575918223772905e-02
7.582214245068426804e-03
-5.295438926980759048e-02
-4.071629331107193099e-03
5.421582702282519428e-02
7.382464574999568485e-02
-1.088979411166520889e-01
-1.361804471995497166e-02
8.852703068229900163e-02
-3.983999794602762629e-02
2.509948489956041143e-04
4.806028792797088084e-02
-6.952373970731465236e-05
9.976247828769606307e-02
-5.915703450509472022e-02
-1.399891055243257521e-01
-5.403704087840812548e-02
-2.532919450251742283e-02
-7.116359830821543386e-02
-8.699470949217719129e-03
5.020562275249949163e-02
-7.135299246777780657e-02
-2.614996538124705894e-02
-2.824850006713573031e-02
6.692742763595994904e-02
-1.081931122638600806e-01
4.603229498696988914e-02
-1.010597818620826427e-01
-4.711388829504227493e-02
7.929250925923901627e-02
6.793436129159177717e-02
1.559797032913554926e-01
-5.744919608925062177e-02
1.204405345348991963e-01
-6.671530040251701099e-02
-5.771478118701588861e-02
9.511773074186272159e-02
-4.603816705806009629e-02
-5.299182632100313435e-04
-1.226242873553842413e-02
-7.687471268992705775e-02
-1.120938754224946009e-02
-1.170065209074509505e-01
8.057786188721055565e-02
-6.743698142646598059e-02
-5.303665553608841871e-02
-4.389765540084628395e-03
-7.726096763568654491e-02
-7.961452735214062659e-02
1.270350945983703649e-02
-8.870723816779417514e-02
-9.711315506555347199e-02
-2.346668751564374156e-01
-6.232535632792890121e-03
-5.228665112030388834e-02
-1.047059808467598330e-01
6.041604818455640616e-04
9.681504473786137210e-02
5.823340986923784129e-02
-9.068767012396725113e-02
-9.015483832301748879e-02
-4.073777852162475954e-02
5.722313726999277150e-02
1.910112182497380757e-03
-1.279088482964864937e-01
-5.611685853034818761e-02
9.391668923649272582e-02
3.415969659110344031e-02
8.895331624955458982e-02
1.700841234777958066e-01
6.230521889402665381e-02
2.531372887877205574e-02
-3.789820347598053113e-02
-3.373457402418037626e-02
-1.577526835386006479e-02
3.355637813420499216e-02
3.214623186934122134e-02
-7.911002454260643302e-02
2.186693629205064757e-02
-4.411348981360398158e-02
4.494970713344820235e-02
6.095856889564740116e-02
-2.292347166667919184e-02
-4.186055937388799553e-02
4.543184585656828006e-02
5.901635556339109717e-02
8.404979064320651505e-02
-1.282904116512973910e-02
1.024198453172147326e-02
4.729666999061690031e-04
1.650948094850807069e-02
-4.970596861972282482e-02
-2.638073293394762805e-02
1.525764877802085751e-01
4.494638617935237807e-02
-7.862155135035055198e-02
4.379912904169520893e-02
9.229132817574382808e-02
-5.264420572702849938e-02
4.648704081869472343e-02
-4.726622216573858615e-02
-8.765251044753429033e-02
-1.002891390590346515e-01
-1.153923217551704183e-01
7.629653762351570022e-03
-6.613799368393021016e-02
1.814999915578362211e-01
-1.342008931135862393e-01
-1.074706558635827175e-01
-5.518365900835380672e-02
-3.648102104305411819e-02
-1.083334748527159039e-02
-9.154926621918856033e-02
-3.304297404126366883e-02
-3.882068798671643728e-02
-1.824560750384804086e-01
2.136936121261222288e-02
1.550844424021827553e-02
6.651653029818074825e-02
-1.656987521253977524e-01
-1.156566213108442959e-01
6.797966273616780353e-02
3.067976211878573750e-02
-9.046222726921390733e-02
-7.438714433854597130e-02
2.835203305565175622e-02
-1.032646727890503546e-01
3.231836691353985602e-02
5.332035526707212814e-02
1.840717666844976230e-01
9.470414035116881540e-03
-3.034362888027435784e-02
4.257119972379300871e-02
-4.037280502776577351e-02
-1.822570330539500724e-02
-8.779104883253446845e-02
-1.073348703753759376e-01
-4.294233499514585328e-02
-1.579684894362612391e-01
4.655954865004706400e-02
2.875755433037868042e-02
8.201864127679359129e-02
9.406446597940983090e-02
-5.618115347086603817e-02
1.030204565143860197e-02
-4.793098702838421293e-02
5.956044862910332693e-02
-5.989554576904715377e-02
-9.907417808463702194e-03
1.198599020757724161e-03
1.490448140286429945e-03
5.152052855946908511e-02
4.404733158698281859e-02
-2.772696793375316240e-03
3.395645719767844545e-02
-2.566591468667347997e-02
1.026790229966012130e-01
-2.993610996391614376e-02
1.793766909219867561e-02
6.006191856140948720e-02
1.078286827449534135e-01
4.755692477862026590e-02
-1.815196599152371082e-01
4.659275356384780242e-02
4.455844033074193161e-02
7.199389759282068257e-03
7.406097832107707765e-03
5.358089513257596054e-02
5.023359357732626318e-02
-6.733563114726325016e-02
2.603154048508756965e-02
-9.351845271633363321e-02
1.575207868704344982e-01
-7.916456550022102356e-02
-1.594804781019371620e-01
-3.321342967472862284e-02
3.939478980081886905e-02
5.606987966180068152e-03
2.709184389202238044e-02
-5.962446962228465375e-02
4.517234382665770431e-02
1.754363131661135569e-02
7.299002182907719793e-02
2.168931035721431699e-02
-2.259412864845625896e-02
-9.922796391832745810e-02
-6.674596455524077487e-02
-2.874138330529520460e-02
1.411797452802505959e-01
4.790100070618883571e-02
-1.813391520361977774e-02
-3.456767859421969874e-02
5.213683719343051304e-02
-9.353412808405406342e-02
-8.119734282136454803e-03
-9.431247164860973031e-02
-1.903399199953922233e-02
-2.857183567394211421e-02
-6.447436297007003159e-02
-2.380318247699216147e-04
-1.739145832399556502e-02
3.056229993165778674e-02
1.140355811201947678e-01
-6.840171122925649272e-02
-6.162266396916112748e-02
-5.919754561906324236e-02
-9.608672134355036865e-02
-1.002999478091907981e-02
1.421625434188596854e-02
5.675765665126330378e-02
-4.813307810821230992e-02
1.459710749529774879e-02
-1.214410379904974201e-03
-1.151326587078261993e-01
4.558789445459765499e-02
4.904585915725995920e-02
1.059628064466827807e-01
-1.010713088171737162e-01
-8.599648702640581843e-02
7.893209962417975512e-02
4.045576577587579187e-02
-7.585910921634328452e-02
4.802489263775750437e-03
8.571548558775042570e-02
-1.357800477782552043e-02
1.233693881242560464e-02
-2.294281682877929995e-03
3.142756400504340131e-02
-3.685707675594602356e-02
2.174787870115620081e-02
1.162579843993513107e-01
1.745515641814587848e-02
1.222089500504438958e-01
-1.298248858417231089e-01
6.046172682016132810e-02
5.341628367024787473e-03
-5.721190119084987313e-02
-1.307904095935722155e-01
-7.630369686250991490e-02
2.830769838738180985e-02
2.740368556833509481e-02
-2.992202649921618315e-02
4.007508445201338199e-02
4.423958600284533249e-02
-3.705722792695758522e-02
-2.521798113313055908e-02
-3.685790996753807169e-02
-4.202165606899891520e-02
-6.441499433788497320e-02
-4.273734172938354475e-02
-6.628611272433269919e-02
2.358266030037028255e-02
5.548591040520841483e-02
3.036484949097981514e-02
3.848942490155223863e-03
2.513192987042450408e-03
-2.550322102106689082e-02
5.174284106138604677e-02
-6.492760999703152403e-02
9.270808947662728672e-02
-2.236458275799514065e-03
1.705185577581515982e-02
8.351250911571302116e-02
-5.428507226369383432e-02
-7.472937034217617958e-02
4.956004180598490988e-02
1.140802095741270256e-02
4.975787360999028158e-02
3.535347770223595722e-03
-2.746197323098334073e-02
-1.005481100395252958e-01
-4.825661901269616416e-02
8.121440059654766452e-02
7.142869110501955110e-02
-2.550173040471738831e-02
1.019309456174045114e-01
5.290594622255806456e-02
-2.142679447334539314e-02
-4.538463753372682513e-02
-7.003137279430772522e-02
-7.689491687251434615e-02
2.899973314328192775e-02
-3.516021252246083473e-02
-7.864205553578373920e-02
-1.047475687981752612e-01
1.426151684391884986e-02
-1.051063520000765916e-01
9.030149630878288314e-02
1.171991546466032708e-01
4.034662526228981888e-02
1.044971111687966331e-01
-5.710997338915210775e-02
-3.614314663950340956e-02
-7.489699377744996056e-02
8.304754068215974838e-02
-5.077534550416426540e-02
-8.604636050606684350e-02
3.424809878866769131e-02
-8.893347352265351669e-02
-3.655137170725395769e-03
-6.324726560261037522e-02
-1.161630346248733736e-01
-4.153083242149871457e-02
9.950919090386294019e-02
-9.475237343215442420e-02
-8.348179262014503166e-02
-2.286734676503651351e-02
1.047147918872022021e-01
-2.346705727870539507e-02
-1.120455149388583094e-01
-3.596888128594836337e-02
-4.244226562885062420e-02
6.110940027551774872e-02
-7.780877350800455283e-02
3.464626093217512692e-02
-7.083518155181803277e-02
-5.702515090188821356e-02
1.676378863696919783e-02
-9.678774480391463819e-02
-1.522156913013448902e-02
5.253907457570366341e-02
-3.684818787801884266e-02
1.039224608753722967e-01
-5.503142272580488492e-02
1.055778018358412979e-01
-2.567007884182920946e-02
-5.624447865584311645e-02
9.115861621851738261e-02
5.043991096470065022e-02
-9.312154725681543940e-03
5.603777168649160673e-02
-8.174078924514387168e-02
4.723377574835380122e-02
4.376274792315529988e-02
1.420248851533068013e-01
-6.668144075288684469e-02
-4.495187289711708584e-02
8.830772357500940931e-03
8.744217270033573935e-03
1.051484958436462724e-01
6.915443860917606933e-02
-4.595540274630799393e-02
4.555962827093353734e-02
4.359569384389248847e-02
-7.732026491333753027e-02
-5.400275289773127235e-02
7.894920477900377320e-02
2.981864309575764024e-02
-1.082726986438704853e-02
-1.051019166854279957e-01
-3.488155594387598590e-02
-2.214271560111323589e-02
-2.261590975568136125e-02
-3.771355827250863491e-02
-6.000720841045584231e-02
-3.742390214081510458e-02
5.018014564594143467e-02
4.252520430575632004e-02
8.073907281933846714e-02
-5.916749275034404593e-02
3.489887800750736228e-03
8.604608756061983554e-03
5.250824653888284954e-02
8.293616352300092753e-02
9.537538595022952703e-02
-1.507137996420032135e-02
-5.003562254253461627e-03
8.428100647706441434e-03
2.827671164725920408e-02
1.520803635546899846e-01
7.256197956240425205e-03
-1.149215853460493486e-01
-4.894227153954022747e-02
3.244233763067272402e-02
2.394053606224805578e-02
-1.236957444344924800e-01
-4.360039519169167654e-02
6.022013697212870442e-02
-4.301495876056689316e-02
-1.882770079626273907e-02
-4.992622153323320044e-02
-4.628238264165059762e-02
4.772021604764675740e-02
-5.709745400024294343e-02
-6.989171834505307490e-03
-1.887273575241736612e-02
4.695569093442400477e-02
-3.864326768960409629e-03
-1.498657874685022928e-01
-1.548050838415634782e-02
-1.400120450923228455e-01
2.091064838693167810e-02
-6.847580638005384968e-02
7.528798555863301656e-02
3.974546857088074453e-02
-7.405369566619615651e-02
5.525284563047182934e-02
2.822996496518651423e-04
9.171678654824078070e-02
5.140686120686108890e-02
4.428075119774978891e-02
-3.170109932772605110e-02
-1.105955719781078345e-01
4.134177169697859228e-02
-9.205485129231402719e-02
2.014708873945514692e-02
-1.203971615711903718e-02
-1.114614179645622150e-01
1.265345736576772018e-01
-1.106329550604715113e-02
1.119636620368459762e-01
-1.695415840289360779e-02
-1.577201354679569623e-01
-2.977951729454163948e-02
-6.911131556512425944e-02
3.240314267563063760e-02
1.412910195639846024e-02
8.582963285435447898e-02
-2.188934391616588135e-04
3.416420659157687334e-02
7.712710877911657659e-02
3.582694965550380084e-02
7.217745095545012590e-02
-2.559920291534852066e-02
-1.331430583823168257e-01
-5.478343421077398051e-02
-1.261021113758943601e-01
4.850689006058319470e-04
-1.611494717066099258e-01
1.328704596200116217e-01
-5.973201049166797227e-02
-2.257604896064016251e-02
1.107791855399365560e-01
-4.550979793026657672e-02
9.973273738911185571e-02
1.772356742595878332e-01
4.411262645332768989e-02
-1.350360738411287009e-01
8.899208357386338003e-03
-6.265179098164599947e-02
-6.535050715842158353e-02
6.433443215805995964e-03
6.900575615223150661e-02
9.114133856886660889e-02
2.085380747361373077e-01
5.877801922686701902e-02
1.880437261552331610e-02
7.835993923938759653e-02
-6.542517183486673549e-02
-1.546701293444758263e-01
-8.402574921216007797e-02
-1.556558129052968038e-02
-6.279779283147535196e-02
-1.038255051700175818e-01
-9.527945779110326072e-03
-7.944433538032959208e-02
5.758306909410284419e-02
-4.439792091824470294e-02
6.368409666785694589e-02
-3.825257237842647623e-02
1.021274069290900588e-02
-1.050570718101680456e-01
-6.646671347942844504e-03
5.127068295482303112e-02
-2.485618435602311802e-03
-4.636881641534409959e-02
-2.241377697088043491e-02
3.996814555943672964e-02
1.504275309226670854e-01
-9.565214848822475857e-02
3.540122722017608609e-03
2.204514188412016670e-02
-5.519958696924111285e-02
-4.185639100116753109e-02
-1.351903365700056654e-02
-1.326733949412710204e-03
8.216401170569746781e-02
5.808308180676147181e-02
-1.485494163413907630e-02
-5.383513393042897201e-03
-2.076230750776125039e-02
-5.586128442560574919e-02
4.981503898097196237e-02
5.186403881724653553e-02
-3.312550823191403454e-02
-1.039475236057182950e-01
-7.133762579159511064e-02
-1.456508472914576011e-02
-1.108515454182495454e-03
-1.690947709866258072e-02
-3.200706421429804025e-03
-4.764918461401996402e-02
-1.352774476550033800e-01
1.354601304381716775e-02
-2.533436279938834721e-03
1.955045266867365059e-02
-1.181484904516475962e-02
-1.597970819406336618e-01
-1.135347033230981739e-01
-1.850219125546470741e-03
3.113888241505964258e-02
-5.556586605867419246e-03
1.067727428291465885e-01
-4.815832957813898779e-02
-5.488791464250279695e-02
-7.934234011489016414e-02
7.923044548809149434e-02
-1.366610484391785063e-01
1.558696298785383974e-02
8.686495351050092795e-02
-1.164437477000991178e-01
-9.028203340696160789e-03
-2.271763260144531345e-03
-6.586558211505606775e-02
5.762232863304441767e-03
-4.576080990429881937e-03
1.023343265965852428e-01
-7.620135620854899539e-02
1.745832738687664032e-01
-9.475480043394754470e-02
3.439185162889631803e-02
-6.419324674142351875e-03
-1.709688713209399635e-01
4.778360541461042915e-02
7.389940198762409707e-02
2.532933807475996890e-02
1.210073003420833460e-02
-1.291180294513131488e-01
1.029310900458694084e-01
7.559002233338650567e-02
7.926738311234812762e-02
8.121464516642458442e-02
-9.223658654020983061e-02
1.249124409470131654e-02
-7.638936494405347555e-02
1.118299125122334484e-03
-1.313750362120219908e-02
2.605424564030749818e-02
-3.614615000143091977e-02
-6.784735306136498167e-02
4.843449709375433759e-02
-2.007064638071348259e-02
-2.007778060256427619e-02
3.200385896939227787e-02
-1.410684052388160546e-02
-5.884714923296967964e-02
-1.007398676767223833e-01
-2.997921300622764101e-02
5.365490420376965719e-02
-9.030273920736360538e-02
8.789641515745912070e-02
-1.248326984598030487e-01
2.044489364393899111e-02
1.320383807849440344e-04
3.911339412332978660e-02
7.619697575944218981e-02
-7.002859891334024811e-02
-1.185028992589469005e-01
-2.945312242371116163e-02
-5.255834741546080990e-02
-7.294909244478091359e-02
-1.441058815185173592e-01
1.811779640957238424e-01
3.363501068119913867e-02
5.362308736201705506e-02
4.054027936139042304e-02
-7.606352595618119314e-03
3.016571988335947987e-02
-1.540971029095598334e-02
-6.873046519905380569e-02
-1.722434533222145722e-02
-9.257947241073663514e-02
9.298415386983416298e-02
-8.016869978910051708e-02
8.774974350352982011e-02
-5.724683461731173290e-02
1.041658791009054535e-01
-1.373744934629102799e-01
-6.562998765874747398e-02
4.609778224817200759e-02
-4.733011350240561715e-02
5.763463499991636554e-03
2.487141891302082145e-02
1.210596051399776413e-01
-1.992709400828692953e-02
8.926399507677464096e-02
-1.623868499891076012e-01
2.994584300271548732e-02
2.770442686344836911e-02
-3.659169849694376975e-02
3.374092158449348150e-02
-8.104983456583410295e-02
-3.107551970148846737e-02
5.496231428542650010e-03
-1.248153143052751907e-01
-3.915840247995320406e-02
1.007557406965367552e-01
6.102045904106798840e-02
-1.161415006626819457e-01
1.173751739947332395e-01
-1.633004542665216982e-02
-1.035632675788382417e-01
1.088763426870692080e-01
-4.320170961015059458e-02
-9.578057911572533667e-02
-6.332834275210909303e-02
-1.697445088245676248e-02
-6.675384663723127332e-02
-5.776320253287153816e-02
-8.202143655450112869e-02
-4.424422023088422223e-02
5.459722634731342672e-02
7.898338730363595184e-02
1.540592828986047866e-02
-9.800702032994126206e-03
2.677850472892511977e-02
8.441470923179408836e-02
-1.474589294510910975e-01
-6.669173941495903923e-02
4.867792515189714453e-02
-3.787546961580387506e-02
-3.431124366016278376e-02
2.520927905741766201e-02
-5.586843050739856431e-02
-8.951421507569461145e-02
-9.068753701350870666e-02
9.020968472229527052e-03
-7.252628395355148472e-02
-1.161115095883885340e-01
-3.642573482386988332e-02
-1.632914470639727084e-02
6.370502919141474152e-02
-1.157697308416007903e-02
-7.350422177544863045e-02
-8.319446404632326042e-02
-3.792098961743813057e-02
5.286382536400598825e-02
-1.066693196855092625e-02
-4.861521192589229184e-02
-7.475546815671443857e-02
-7.288829437415998702e-02
-2.383450292409599811e-02
-2.222143316912507383e-02
-1.537688570119523021e-02
3.875208626763643888e-02
6.066118078386966567e-02
-3.197994795423082098e-02
3.726554781248601206e-02
2.451858200665488208e-02
-9.193850885663017170e-02
-2.824672232480392176e-02
8.043766039323978212e-02
-5.396711036248884319e-02
3.803558889646151131e-02
-2.095019208160148541e-02
-7.249658801946130132e-03
6.496870404343434158e-02
-1.258042930348690636e-01
-1.292269467073717537e-01
-4.149115182375296383e-03
5.715745944423617636e-02
-5.675760075614783712e-02
4.149496669936864751e-02
4.258830779465903882e-02
-8.822639471428367006e-03
-1.012156224607485000e-01
5.198127810867413795e-02
-2.608426084126239455e-02
-2.304810997430838115e-02
-1.786226440161459844e-02
-5.065816412036876909e-02
-4.006350876761477324e-03
-7.181548882813797163e-02
-9.503645320862323664e-02
-5.428356865952054661e-02
-4.979286971412669183e-02
7.690050927003623527e-02
-1.233405009170572275e-01
3.857935495933195735e-02
-1.027024541858825440e-01
-1.026322990167054389e-01
1.736272008074376400e-02
-7.046102714678847967e-02
-2.137116871255605177e-02
-1.744443207880123914e-02
-1.025041229458418801e-01
-2.264078961375991933e-02
-4.831814385438873427e-02
1.082699603754937699e-02
5.688189306047047172e-02
3.657254047761390736e-02
-7.831221584140750369e-02
-1.110979754582747114e-01
-5.445034998492915418e-02
-4.702806699881355995e-02
-4.592426594506637816e-02
7.738401486136495255e-02
4.417176177487131851e-03
-2.044774316300423424e-03
3.877664197950731612e-02
3.346849101556759187e-02
-1.091312647341207281e-01
-5.795638697170465981e-02
7.700239519661089549e-02
-9.296427562184617771e-03
1.841032646472502005e-02
9.999192378687712934e-02
1.160295475847371305e-01
5.243225938097879207e-02
1.720647545168190948e-02
9.925367616854904873e-02
-2.572853389448928954e-02
9.951490595413196513e-03
-5.826302329403515445e-02
-1.040782590800359425e-01
-5.006765317825367934e-02
9.363437487213496779e-02
-5.779716662842069447e-02
-5.471399690020279510e-02
9.862055285519238934e-02
-5.729894744699084302e-02
-1.236997938633278976e-01
3.878555244381332728e-02
7.371080140527785929e-02
-7.443556907940393486e-02
4.828217229624266055e-02
-1.168675665572576627e-01
-2.138872747175666472e-02
1.002472938704479510e-01
4.145329281133480065e-02
9.044995280345716204e-02
-3.701418147167104267e-02
-8.120523907913547446e-02
-7.121221684234223248e-02
5.243488226390490003e-02
-2.739979978071000084e-03
-2.348486261801257038e-02
-1.007509099901521821e-01
-2.074379322983402330e-01
-1.023306885851693604e-02
1.856937855762287592e-02
-1.267536952977217982e-02
2.652894811701940470e-02
-7.574506221070609335e-02
8.163802326663799347e-02
-9.696157852474804675e-03
9.958396140864245183e-02
7.192956304043486050e-03
2.426405071253246760e-03
-5.189882832928621043e-02
-6.483137873547992203e-02
2.071957909089157043e-02
1.870157261051602973e-02
1.315026392320302502e-02
-2.250872233448758530e-02
-1.647790713842015769e-03
1.080342036433142722e-01
-4.158825438439848338e-02
-6.074744039915321719e-02
-6.142482665452596996e-02
4.805772792199661594e-03
-1.485251199119291265e-01
-1.210412463036643210e-01
1.003254615649892129e-01
-3.167212671767150739e-02
2.076320431886891364e-04
1.031494448629819427e-01
-8.470673734700072399e-02
6.469851619907805197e-03
5.725611395084562183e-02
3.726211060916252704e-02
9.549804553084971503e-02
2.426784734741811028e-02
-1.204942522683170592e-01
-8.774184301645378270e-02
3.386831679033299597e-02
-4.412452441484158994e-02
7.435096162420475052e-02
-1.929546641719301694e-02
-2.094374349649546010e-02
4.071454072579840794e-02
4.575733554422053984e-02
3.922319611757418140e-02
1.963800586633905332e-01
-3.095823006894456164e-02
-8.346727029313485979e-02
-6.175696762925555333e-02
7.655456945490662912e-02
-5.447586353075999782e-02
-1.157839117002163951e-02
-1.314036415918530820e-01
9.200844933309684434e-03
-1.110445658630858194e-02
2.197246907905227656e-02
9.535062898526210085e-02
3.253597241804121604e-02
3.111800267977250442e-02
-1.261087370845161981e-01
-8.708600424580235921e-02
1.248539326140148259e-01
8.494505446639752377e-02
-4.244784879988752063e-02
2.549913989056697139e-02
-1.138344522817675251e-02
1.634072468841416687e-02
-3.837342028907188285e-02
5.483520232091530083e-02
-4.967289053554418271e-02
-8.133426815107000496e-02
1.664058336602781962e-02
-6.901356336260722202e-02
-5.783684463120691149e-02
1.622755857198160748e-02
3.291069000123859195e-02
6.988552425278900249e-02
-1.002656746745316484e-02
-5.625589103741114594e-02
-1.271668956269327196e-02
-5.151260052175890732e-03
-7.787824289751563156e-02
6.655495680399235725e-02
6.631524448573293540e-02
3.771656349111952855e-02
-1.060963186852119100e-01
-1.004219852718774009e-01
-2.831127927955569973e-02
1.070226657137214044e-01
-5.780267043332153881e-02
1.042030565985923168e-01
-1.915356245336286012e-02
2.373423754422035112e-02
6.019601114364689365e-02
-9.772034663070702787e-02
-4.659585744574473720e-02
-4.853487750025205216e-02
4.100560550615532651e-02
-5.346155302990471953e-02
2.055202348656012812e-02
-4.368101270178963852e-02
8.242385011289364918e-03
-1.018987372939794689e-01
-3.765577810376276920e-03
1.797496114676107662e-02
-8.114429277926105133e-02
7.471750825916548266e-02
-1.685225513934923980e-01
-1.995845532601330519e-01
-5.201847472844751963e-02
2.256687162693826049e-02
7.387652380925123496e-02
-2.227179319623723633e-02
-2.324423317224114660e-01
-5.814764898993997344e-02
4.698306818451626621e-02
-2.009503963584292376e-04
-2.689296175835501762e-02
-1.241926436315848453e-01
-6.427917088000995385e-03
-1.141921339369299931e-02
1.302210163319907632e-01
-6.480968638995834863e-02
3.054224980594461361e-02
4.990885132849202932e-02
-7.379517333552004787e-02
4.871004007780423140e-02
3.547588917661481656e-02
1.421817615397418522e-01
-9.641262249369232998e-03
7.185827592255880636e-02
-1.961394499815058770e-02
-2.707017681909578213e-02
-3.933536158739175947e-02
-1.113373971166020313e-02
-3.395313854212757970e-02
8.327853936872814389e-02
-1.975687801616989869e-01
-1.014251123481077488e-02
1.992797613966743389e-02
-4.027828641203547166e-02
-1.903978615056499679e-01
1.335150339011345888e-01
-5.507103328989126911e-02
-3.614874090349859403e-02
-3.024903216408441481e-02
-1.383265188040335401e-02
-3.361911980799641569e-02
5.740989283230090584e-02
2.446563824154333530e-02
1.187247498172221832e-01
6.089096358231635420e-02
1.070019496571419926e-01
-1.187366643821159834e-01
-5.974197865869607105e-02
-2.316841403937316274e-02
-3.568679476797562838e-02
6.250381921856093537e-02
-4.516671971201575986e-02
-2.545686211372360369e-02
-3.941120705743046682e-02
-7.638392685209843824e-02
-1.036725563268139638e-01
6.322803793758868807e-02
6.480182708711930417e-02
-1.239352220762300200e-01
5.534870198450644874e-02
3.199329867860439217e-03
-8.242716557709892089e-02
3.399959436751545661e-02
-5.553726684303517125e-02
1.560616889360787012e-02
-2.165292108007422361e-02
-3.623786070903521617e-02
2.692570370080518780e-03
-4.254457529645610907e-03
-7.408221784669477561e-02
-1.125737719181660046e-01
5.738925103130866623e-02
-3.294726527344013500e-02
2.993804279577617564e-02
-5.994558381277781400e-02
3.744509080582167360e-02
2.755580220451562395e-02
4.210037629441350238e-02
1.381352632233598665e-01
5.635001979876103767e-02
6.222795520609929881e-02
6.366443779199121734e-04
3.225965058153316967e-02
-9.139229964956974150e-02
-1.101617097767799980e-01
-3.831257388929616009e-02
-1.270113543155036544e-02
2.976528654680207927e-04
-1.919374436774263712e-02
2.505092711660756102e-02
-3.737359922290829639e-02
2.133720316873953526e-02
-3.548400963897013760e-02
4.246249260070179138e-02
1.621742520053241765e-02
-6.540604980936017519e-03
4.279925839176392660e-02
-2.510027253953006632e-02
7.915615748566716403e-02
-6.193529630603512165e-02
-1.406320434913354567e-01
4.309573867775358391e-02
-4.704731946445260549e-02
1.369302752339968399e-01
-1.209307344268609336e-01
1.214974232493704898e-01
-5.394027857623313882e-02
-6.660978111002446855e-02
-1.588675739125866918e-02
3.492911651702602233e-02
-3.367491179569786358e-02
-6.856813010690400445e-02
-1.196447204594297403e-01
-1.110668843791886434e-02
4.347336900792640041e-02
4.958801799837455476e-02
-1.059715052365704097e-02
-8.935644427855921057e-02
3.584657723234925542e-02
-4.628114222327996824e-02
-3.632949765693698624e-02
-6.431401931949687345e-02
-9.010044125873270526e-02
-9.499358437161398161e-02
1.078008787599473578e-02
6.851766279147279703e-02
8.677386148124452414e-02
-4.420239326409820119e-02
-8.281784235202939437e-02
-6.334413655849892300e-02
-3.853283499925731770e-02
3.406705092323192297e-02
1.370077243408675434e-02
6.029408845755202667e-02
-3.646581885599853301e-02
1.839483399087635815e-03
-2.520562279804880110e-02
-7.594758730681390457e-02
9.042978828481139375e-02
-8.733526374410179038e-02
2.509363163927973150e-02
-4.247818126965034746e-02
-1.355865336508734094e-02
-1.349036654539427782e-01
-4.088770116389080223e-02
5.191581294464274465e-02
2.813484737542400194e-02
9.510658158328734457e-02
-1.336168858870493970e-01
-6.674818412419972202e-02
1.148159989143511112e-01
8.382955582006332979e-03
-1.162846836643269266e-01
-4.347312910337305415e-03
2.955500456310647742e-02
-1.184896014879883580e-01
3.338928013606391743e-02
2.359876281051210070e-02
-3.946630967136781701e-03
2.200901517080626132e-02
2.493225222521076520e-02
-3.845994151064587724e-02
1.225427187761471970e-01
-5.640425151325540766e-03
-1.378496856702265405e-01
-7.021177251068502767e-02
4.853424937831992553e-02
-9.823120481065082676e-02
4.649561956742279123e-02
-9.322863535403494439e-02
2.830115800965024228e-02
-8.337956019297432242e-03
-2.538681491968057535e-02
-8.862434831135380942e-02
9.711010901416877727e-03
-1.419562112815192598e-03
-1.308012863880251841e-01
3.820891112841624804e-02
-1.294363191499941709e-02
-2.159708977192138085e-02
-1.251952432465020248e-01
8.648951446846914193e-02
3.052483073796070229e-02
-3.768824946870300008e-02
-1.228391853292663677e-01
-1.681997082379105626e-02
5.549297141622805407e-02
-4.854176019142485143e-02
-1.452324228466375378e-01
3.831865130760492982e-02
2.851315713044331318e-02
7.109805612397159316e-03
-1.049661821648191079e-01
7.925222905619462577e-02
-5.218113754416171812e-02
-1.061306292748613878e-01
-1.596268899923553586e-01
-4.593777555450805766e-02
-4.939836066766756933e-02
7.953796320694220268e-02
2.679946339244499570e-03
-2.658545844496205610e-02
6.856295412651178256e-02
-4.476185756271718746e-02
-1.194783562699174850e-01
-1.577861633746243525e-02
2.369722798834551780e-03
-2.822434192046119339e-02
2.085281562177274464e-02
1.455589225077886240e-01
8.542847971253121619e-02
-5.920351768110319879e-02
-3.520456994590145244e-02
-1.627142045178225915e-02
6.096985564456083861e-02
-8.956302269858133769e-02
6.784395856833067007e-02
7.653988509006760810e-02
-8.583495385430257862e-02
5.289627135040299299e-02
-1.282775365535337164e-01
-8.576299414156765208e-03
-4.768376079235853854e-02
1.018703417510726135e-02
-6.083096548734449188e-02
-5.943433176069402857e-02
-2.490143370864264863e-02
7.621825475639965042e-02
8.902768431598917509e-02
-5.662984367185572299e-02
5.824195236293253780e-02
-2.771365023282890833e-02
-8.517911655163734608e-02
-5.592170789785287643e-02
-2.876686958797467289e-02
8.799221872099215191e-02
1.129227545621350366e-02
-2.126589056674033432e-02
-3.194555092469837654e-02
-2.377745554861228697e-02
-4.922909692174529811e-02
4.046714853678989865e-02
4.012547762924391359e-02
6.734541294403442735e-02
6.725025575765335162e-02
7.157720904969999687e-02
-1.254233486618746840e-01
-5.471321629380118678e-02
-2.714866849420367878e-02
5.759995195303955345e-02
-1.626517053619409500e-02
-1.595842414701452786e-02
-8.518941030696679240e-02
-1.079985332361817763e-01
2.662211889998481254e-02
5.880894501031445204e-02
1.601116055429926410e-01
1.451222787488423982e-01
-1.427801199897973938e-01
7.065347983027375767e-02
-5.879767480951764158e-02
6.026621324648411904e-05
8.542794245103803308e-02
-7.149573701953133853e-02
-1.067783394257284385e-01
1.650057850249363536e-02
6.803454294216840573e-03
-7.261379198167454418e-02
1.003727675981680445e-01
-2.836724900485581777e-02
-1.578385430833532943e-01
9.891561508309103246e-02
-1.340156056757736136e-01
-4.278621835098817688e-02
-5.551863562494438811e-03
6.531967838981840579e-02
1.020070212460821163e-03
-1.074528258422474958e-01
5.547239596639973180e-02
-5.958432901551600352e-02
9.566807269232033284e-02
2.110494376682465253e-03
-7.058192002875257609e-02
-5.754865118341967456e-02
4.770229979040344070e-02
3.436618937450719447e-02
1.166405955591306165e-01
-1.225090727129830685e-02
-5.491439562466723240e-02
-7.943325130337458573e-02
4.492169247553703948e-03
-5.811206020907222318e-03
6.205880648066545296e-02
4.846779266140562037e-02
3.484726639118682946e-03
-3.158650303950282651e-02
3.610493895480867965e-02
4.327326374710913602e-03
1.407096139525030893e-03
2.792580390707910531e-02
-1.058291137460869030e-01
-2.741409804893802163e-02
4.789783849266610050e-02
1.908662110653977506e-02
1.125651707768289822e-01
6.848511511655976103e-02
-6.347625070950503601e-02
5.728990744207087399e-02
-1.418577673730905819e-01
3.590342354721878099e-02
5.962453920107581642e-03
-4.303626874881344433e-02
-1.559796201171068653e-01
-7.752276939809747691e-02
1.841008951232585983e-02
-4.986929778639120382e-03
2.812735250951052535e-02
6.575598601768996299e-02
-6.433114893985435179e-02
1.192666777852108284e-02
-1.223363720661760704e-02
6.362929414207549317e-02
-7.596088834691419600e-02
-8.385115535707497736e-02
-7.294693296818734185e-02
-1.194440314464866558e-02
-1.726714515820937657e-01
3.152070350043670310e-02
-2.763540271523166891e-02
9.227811789522934183e-02
-1.756147359879609363e-02
-9.450769423000822400e-02
-3.868008732826593021e-02
-7.623691141409248695e-02
-4.867417446947260723e-02
-5.424781084911798473e-02
4.746552592686736904e-02
5.381773520185426096e-02
-5.072307898103604884e-02
-9.200177079694104101e-03
6.607032860039013800e-02
2.205872066470079135e-02
-6.569718881114298970e-02
-7.265012232788536917e-02
-1.151158786108522070e-01
4.178880706237760034e-02
7.305872278749798998e-03
8.067057290749173049e-02
-5.175641366748819083e-02
7.593253735746138822e-02
-8.139885025045495714e-02
-3.206484016240313678e-02
8.495968132318137966e-02
-7.559101472399463659e-03
-1.272906471681973795e-01
-2.012427655851372482e-02
-1.532487621932512589e-01
4.007349341308282659e-02
-3.003062875846412155e-02
-1.389702034240266060e-01
3.959264821908630577e-02
4.047866156825126460e-03
3.333080182537461605e-02
4.581108392454537326e-02
1.004196069906169823e-02
8.544984652774675893e-02
-9.785749892032773178e-02
1.069437804809906731e-02
-2.961073995047491109e-02
3.171952068803200742e-02
-4.161367757062496564e-02
-2.978598967119427954e-02
1.487805201591463518e-02
5.214564611262730021e-02
-8.604113392510995273e-02
2.480612762244510314e-02
-1.301705608932934681e-02
9.370475375325416217e-03
-6.999849293124765781e-02
1.092939769903521034e-02
-1.030322986434676485e-02
1.261649386558212627e-01
-9.161353135953280435e-02
-4.474130865046974104e-02
4.647865734540457955e-02
-1.991933455871049835e-02
6.443996417306696589e-02
3.453302427339747377e-02
3.669343266307804885e-02
-3.248304369876366809e-02
-6.978001321408396074e-02
-4.696648545480117121e-03
-7.385099950141908731e-02
1.075253420165675211e-01
-2.182457591587617929e-01
4.133490987533927630e-02
-4.791149467906026527e-02
-1.709428657517973044e-02
-6.444792259050902139e-02
5.436529481684151260e-02
9.619241830873706545e-02
6.693381680536006871e-03
-1.029129356941429069e-01
1.755906510826536759e-02
-1.971755733296965546e-02
1.402520400837257430e-01
-1.356457559697184789e-01
-6.126779115009523685e-02
-7.095946703413505419e-02
-9.656099418991632988e-02
-6.411973501383334828e-02
2.237814732959889086e-02
-3.171878538239209649e-02
-8.665196659665712342e-02
-1.890596995175916270e-02
-1.033757652940212879e-01
4.452654385051030977e-02
6.149713509356398433e-02
-3.511057606179074364e-02
-4.460678991388283138e-02
2.469393204559649710e-02
-9.395842801112354314e-02
8.011646002547634371e-02
7.477805491202481336e-02
-4.836703621649170171e-02
4.844844189577941773e-02
3.615410691230181578e-02
3.736967199966011090e-03
-1.518636123952378236e-01
5.674345366895701404e-02
5.276496890147321789e-02
-8.790156273821175814e-02
-1.482085566533721532e-01
3.511679348036933490e-02
7.005240423824078515e-03
-6.070690492136113919e-02
-1.417125307224160156e-02
6.380090925549708469e-02
9.106660776927708034e-02
6.767909030922755580e-03
-1.565871657558987008e-03
-1.370863045209177455e-01
-4.288466903830349258e-02
-5.067180627124225761e-02
6.117030536344889025e-02
4.223767278832277206e-02
2.038763709606759497e-02
4.837873086219929286e-02
-1.253428959312401225e-01
1.189859233938550670e-01
1.995117229150789040e-02
2.275642625736010172e-02
-1.181422511862841290e-03
6.731002463851464002e-02
5.707071747979176185e-02
7.190825261525395085e-02
-1.729948597231245264e-02
-3.405669098911193876e-02
4.858080437821282738e-02
-6.607021758158264368e-02
6.062533372027697348e-02
-1.885341678075257849e-02
-5.615400237567688690e-02
3.566395236586043793e-02
-1.193916791481788309e-01
-8.472609494924285278e-02
-8.967761990919607962e-02
-7.195030460147558427e-02
-5.255982456885850695e-02
3.593123673260385093e-02
3.033999134634569883e-03
-6.632650003966064634e-02
-2.020808122930106351e-02
9.467135906329193773e-02
-5.569550915700768184e-03
-2.926316400657372196e-02
6.688625962888846040e-03
-2.010308153763385244e-02
6.023343040964831280e-02
-3.361679261743953130e-03
-4.311314021716705809e-03
4.284513472458842398e-02
1.115715660541192512e-02
-2.242021547045171259e-02
-1.073438659496013872e-02
1.244337100163089987e-01
3.936838550869308645e-02
1.157188349421088384e-03
-8.384128913418843407e-03
1.396166684274175451e-01
-3.254146583284484723e-02
-7.661911263314746812e-02
-6.986845573076855276e-02
8.718704115864947535e-02
-5.369251222079485242e-02
-1.180498388012038782e-02
-4.209038149485572894e-02
2.839481527429399757e-02
-5.923220865182515782e-02
-5.860213651709979266e-02
-2.777140083081901939e-02
4.335971387783978115e-02
-1.626047505679322283e-02
-1.183921622998862326e-02
1.614264509356300170e-02
-7.047416219125916988e-03
-1.268620556526637612e-02
6.269082498245329149e-02
2.415304176018508511e-02
1.126776226236643752e-01
5.434952494626991981e-03
-4.992653531240058562e-02
-9.204458220929624679e-02
7.831391204846965826e-02
-8.641970244195569528e-02
-7.553150745215028716e-02
-1.678862234326758754e-02
-1.215646491152912092e-03
-5.423990924857256812e-02
-7.778066689373397402e-02
4.770272439179058105e-02
2.736949531060675969e-02
-4.537290429971767292e-02
1.138049319473839749e-01
2.384588287427798561e-02
3.266956812407156158e-02
1.742218686501886826e-02
-1.455719250770745425e-02
-5.765346257306213501e-02
-2.702697258078848655e-02
2.291056549193742908e-02
-4.024477744985486410e-02
-5.547026307678661061e-02
-1.710923318315727207e-02
-7.476375230222566393e-02
-5.648716059924515503e-02
9.746632221391476197e-03
-7.792002058812796950e-02
6.177552357180814829e-02
-7.534882224926353622e-02
-3.772797792134344880e-02
9.425709572243068032e-03
-8.652732510953775602e-02
9.311798575303363579e-02
-1.118070524741715532e-02
8.920859903441200056e-03
9.941070429536998099e-02
-3.185726838906766112e-02
-6.736205439997942912e-02
4.195582028922986706e-02
6.708003385709526700e-02
-2.303540281167031425e-02
-8.033519112315239130e-02
-1.132721618978033556e-01
-1.103128923677638845e-01
1.231385824201367170e-02
7.972591349214849105e-03
6.292321613953502646e-02
-1.053423931500430538e-01
6.545665881063393587e-02
-1.416703307583880855e-01
8.762177016571544297e-02
1.079881102270535409e-01
2.164266581237882930e-02
3.112439418941913283e-02
9.291935793238037533e-02
5.336698508522230711e-02
-3.650799164398407098e-02
2.144319172498067999e-02
-5.553809459577319606e-03
-4.314730663679482853e-02
-5.894976583789483804e-02
-3.398357297378307162e-03
7.147797635399887051e-02
-9.475366421973205333e-02
-1.540657668723888207e-02
-5.109862208704933281e-03
-3.777715897244406096e-02
8.472565208332528963e-02
-6.065578958443271912e-02
-6.900356403445154219e-02
4.934764408821296078e-02
7.960741505036170174e-02
-2.748214663524233686e-02
-1.070730950734377802e-02
-6.024448392404707642e-02
-1.587958892707652669e-02
-2.976793917508790618e-02
1.788538701742132045e-02
3.375660022399191301e-02
7.582078981224715103e-03
-8.295972327144525427e-02
-5.056655846585968173e-02
2.047015157047560666e-02
-3.425688941613076050e-02
-6.585959335673274850e-02
2.295625747276771461e-02
2.666960326586620758e-02
5.077757957594773025e-02
6.529676946174146901e-02
1.589358750134084799e-02
4.246093154958968663e-02
8.063919147532065679e-02
-3.999954546683249026e-03
1.046799618485677735e-01
9.232648153679602621e-02
-1.237607501058991671e-01
2.786439333479775668e-02
-3.663517406132783816e-02
-2.521406603720838593e-02
1.383306418660436819e-02
-1.694353146269451243e-02
-8.374289956013412917e-02
-8.725354916940866734e-02
1.050808647721335476e-01
3.267840157168612480e-02
-4.122827276818526870e-02
1.676725151093958754e-01
-1.162642422372592993e-01
-8.009996754849440029e-03
3.161854770010803783e-02
6.570820247008070901e-03
-7.749743120903737625e-02
-2.500278148355861846e-02
3.392522728057120046e-02
5.765171023815260365e-02
6.505124331553979733e-02
1.054930995130075322e-02
1.177058786192711204e-01
-1.040135126671321575e-01
-9.433543993515011716e-02
1.178471854769006649e-01
-5.050368960197133134e-03
-4.352410107085394331e-02
-4.940516033378325456e-02
3.623774238195842656e-02
-9.684151338290487854e-02
3.577536377576599758e-02
1.350371660704963728e-01
-1.309574962368857953e-01
9.422159303057660307e-02
3.469128626424906187e-02
-2.119310207890170040e-03
8.794119425179915128e-02
-9.318053446135919626e-02
-1.155322314060565347e-01
3.301230839641301068e-02
2.372869376870437308e-02
-5.758771014339852945e-02
-5.083668052868706849e-02
6.766809081237369627e-02
-4.676108194382196754e-04
2.164170749444097389e-02
-7.997137140828386448e-02
-7.299540778097335890e-03
7.803890177774405745e-02
-4.411405175629556918e-02
-7.663657619794150833e-02
-9.576711543316102082e-03
1.067534318245501879e-01
1.024995801390896598e-02
-6.598227510281047536e-02
1.101870745928054673e-01
6.736798930872067714e-02
1.051482253936319583e-01
-4.200435851075551806e-03
-5.601300004640341959e-03
-6.034359034344561473e-02
-4.488635728104084510e-02
-6.387853784773062094e-02
8.564144201247475552e-02
-5.654610890408276469e-02
-2.254001426686406268e-02
3.569552418814558870e-02
1.269210618489273468e-01
-7.348000921993037837e-02
-4.732279049329125159e-02
-3.922820077324067067e-02
-4.527897322021544324e-02
6.645669611186266756e-02
-2.554590972475602462e-03
-5.663653471265527733e-02
7.392359017732927362e-02
6.204984534795077167e-02
-1.064327743141392779e-01
6.746374276563406151e-03
-5.946351395310393168e-02
-1.330494950508161744e-01
8.944269814723200540e-02
-1.119255377841202187e-01
5.933161049092047779e-02
1.552985842036852526e-01
-1.573627527824442707e-01
1.131017208609984420e-01
1.255786659262627114e-01
-4.856790087035346010e-02
4.607392872484567664e-02
-3.281014570848709427e-02
9.347346941518294705e-02
-4.396430050172032283e-02
-2.145270058170475544e-02
-1.426409729651762215e-01
-1.202031781888240371e-02
-4.453753664679450767e-03
-5.688606953695524160e-02
1.787662343372468585e-02
6.435911164300263387e-02
5.926883647726923637e-02
-3.018672051850810820e-02
-6.420799983790589915e-02
-2.363382913235011294e-03
-3.351563447553246311e-02
5.096581748851721633e-02
8.343879296291778491e-02
-1.487739351114109043e-01
-3.087477202628118207e-03
-7.586727409913679443e-02
-4.430477312645345056e-02
-3.133694981123906487e-02
-6.317104809936487098e-02
5.263346038881403649e-02
-8.096168437353802594e-02
2.820929234415900030e-02
2.952490311866556513e-02
-3.323709063068142761e-02
1.047219669561901545e-01
-1.947092676505936953e-02
-8.658733311144936606e-02
1.410816860693595715e-02
6.804338102691458168e-02
-1.026041959288827993e-02
-1.616834960123750622e-02
-7.810643954402634107e-03
-4.592605443268304999e-02
-6.952618708151647384e-04
1.039967903869004097e-02
7.085551794964645156e-02
-9.343691962097540327e-02
-8.755983142752943316e-02
4.471198256188602810e-02
-7.297006063155303535e-02
5.685701013547759392e-02
1.845402008880276182e-02
1.646295899845031940e-01
2.426148715072193665e-02
9.611263797677972731e-02
-1.251351816343373446e-01
5.533317259971263363e-02
1.029284520921036616e-01
-6.107635867230364751e-02
-5.862249287714010881e-02
2.951048658507391190e-02
-5.273929619773008032e-02
2.856164805802284545e-02
-2.933236750324561340e-02
5.714186246902172583e-02
4.168581251812022298e-02
-4.653778498634353333e-02
-9.869970514251572014e-02
2.382418017156253190e-02
3.168791953295133079e-02
3.162009113067429378e-02
2.455726753737336523e-02
7.544316269330392233e-02
-9.302118739375959955e-02
1.819088375906926514e-01
5.123461199913108971e-02
1.290789588848193503e-01
-3.191142017194143615e-02
3.668838481506891958e-02
1.273138346084994738e-02
-2.255861904584934366e-03
7.347813137739320211e-02
-8.825303407063356601e-03
6.419887899160491018e-02
-6.866465557547658805e-02
-5.003373719908909417e-02
-4.098026637223237123e-02
7.898676003449478858e-03
1.121892540820909612e-01
-1.046536444737389618e-02
-1.053582048849464881e-01
-9.746387481446547318e-02
1.073828875180184023e-01
8.510236040805901903e-02
-1.908264871937482079e-02
3.748845873024275049e-02
1.979137793773308451e-02
-3.335540202087113656e-03
1.380429146391469811e-02
9.396120210915007154e-02
8.553279489817125492e-02
-1.059974156658524125e-01
-7.083509452647868132e-02
-7.577342155727175010e-02
-4.144440710906585612e-02
3.142300949404368965e-02
8.554858842697582108e-03
1.306250167124765015e-02
-6.744306389031652638e-02
-4.436546653683870467e-02
-3.235940783827245815e-02
8.661301853786249061e-02
3.552313180115607844e-02
-5.088538822538443912e-04
-5.625655045193556081e-02
8.168008327716107242e-02
-5.078591593694115058e-02
-1.340932339815138208e-01
3.463304283049035114e-03
-1.062086695066820907e-01
1.531147916510109709e-02
-1.451906844773157013e-02
-1.000157432036723609e-01
-6.551139078073237032e-02
-7.668729402918386673e-02
7.699816045927106167e-02
6.669963453582732071e-02
6.771303608674431040e-02
1.038771906953742802e-02
-3.953790389853234499e-02
1.051888771933257583e-01
-6.371352383057911350e-02
-4.805748107381115769e-02
4.495204572988859698e-02
-4.625694707438095243e-02
2.707569388762143953e-02
-3.242999916964924706e-02
7.215637664619052073e-03
5.352496868738545327e-02
2.406742425480104183e-02
1.863479343043427511e-04
1.684179533819255351e-02
1.219642358987274716e-01
2.802338411415182182e-02
2.544496285062083571e-03
-3.877687361122304777e-02
-1.469090315808529133e-02
-2.263052070525824883e-02
-4.123733599672402272e-02
-3.728461105367040368e-02
-4.319077902848355438e-02
-8.374066406855569522e-02
6.524184717231862329e-02
-3.757831089946536002e-03
1.205332837092938092e-01
-5.871545630301587548e-03
8.253014285421721163e-02
3.691194953573222193e-02
-3.883948544998616637e-02
-5.055647678900050679e-02
-6.387510197309741178e-02
-6.588304160872833493e-02
-3.978887769056750623e-02
-5.129584915684124585e-02
-4.690343739741765355e-02
6.015316228908466206e-02
-5.036556797107181321e-02
-2.527486597045723246e-02
-3.596337352450527242e-02
-9.462329297052884947e-02
1.069758375692196339e-01
-8.932084574773460628e-02
2.128392890632690646e-02
-1.183791347354380269e-01
1.944242532148964106e-03
-1.016742018512732659e-01
4.862746292683477189e-02
-3.039446607402275079e-03
3.910309891157245921e-02
7.246885207916668736e-02
6.617552518656195752e-03
-1.101609318178781854e-01
6.609201374848033828e-02
4.313325159547294618e-02
3.948075857952696582e-02
-7.983354405184572844e-02
-4.133426458587360214e-02
3.757528090485112021e-02
-1.026280031681963550e-01
-1.305748243016167376e-01
5.646433421756400645e-02
5.485275163218413658e-02
7.696351491386348165e-02
4.905340470538307324e-02
1.045341624482299878e-02
-2.837730147458050745e-02
1.185856188487190016e-01
-1.072086739807340816e-01
9.286223341057063541e-02
2.859617456684934028e-02
1.211932433186298751e-02
2.246740449103594439e-02
6.106725686104132189e-02
-7.220177086660567456e-02
9.832646253602231323e-02
3.981046905213089099e-02
7.724722497332735596e-03
2.357688943986622349e-02
1.092769214086739826e-01
1.536773477916416122e-02
9.552906155147157519e-02
5.520252947787529507e-02
-3.492132999710807068e-02
-9.841138594752156521e-02
-4.077707234027770633e-02
4.704300694775662844e-02
6.705454561402379721e-02
-5.400826107970110174e-02
-1.124492655503442004e-02
7.154822308094188621e-02
8.656150842617284236e-02
-1.825532273485005672e-02
5.428485109843866202e-02
8.303399983301978926e-02
-2.076189409973448058e-02
-8.076473153073156219e-02
-1.375353044851477212e-02
1.562667052138299803e-02
3.007215183456208793e-02
