1.986215448655281601e-01
2.066622010521518560e-01
-5.299252788048688934e-02
3.785151941331984515e-01
-2.037697317054188439e-01
3.809661289319964395e-01
4.642918352090418810e-01
2.690136932843466000e-01
-3.848245186040135102e-01
9.084579936860530391e-02
3.882873292208529059e-01
3.448367609256745570e-01
-3.335382151542792828e-01
8.805084108277720645e-02
3.927852783476776244e-01
4.654159350836811204e-01
-1.610578859915136885e-01
-4.403795259452848443e-01
-1.376704347782990168e-01
8.218539317157842750e-02
-3.770810838335244553e-01
-2.457551106375401029e-01
1.264665160166422719e-01
2.392447365647296931e-01
3.350716906402380624e-01
-1.916587032382244538e-01
4.769255555237577604e-01
-5.030891980273459740e-01
8.081858226639168294e-03
3.313096747448328050e-01
9.703593001373510274e-02
4.608705123727892539e-01
2.590182427146498489e-01
-3.656101268943146021e-02
4.744444113780841854e-01
1.317661566873514455e-02
-3.614718232417428179e-01
2.730468429061507774e-01
-5.329337401708324207e-02
-2.528352555583084360e-01
3.904445069442645799e-01
6.051292840177211613e-02
-4.960978560917551627e-01
-4.905360933603407081e-01
2.535318987790828316e-01
-1.063091345169005081e-01
-3.433205818027322276e-01
2.069041106636320404e-01
3.005036143508719171e-01
-1.613822415922887277e-01
2.478049655975155807e-01
-4.241186991448577803e-01
-3.650161770716157661e-01
2.460751775419585952e-01
1.594811430434672495e-01
3.849571820885802076e-01
1.388908670937891443e-01
-3.734012485706733608e-01
1.290660006405783267e-01
-1.379621898556197546e-01
-5.737171173549356906e-01
5.870234324608054194e-02
-2.421752476017419720e-01
-2.704005613099844108e-01
-3.307478859258490278e-01
-7.189812293089305195e-02
2.334315805375052622e-01
3.853299325837395983e-01
5.502261085432789273e-02
5.295519540941556746e-01
-1.802326018665442176e-01
-5.387418625082459611e-01
4.558778057925536586e-01
4.404001149254790359e-01
1.427847016057048612e-01
2.611848058701263797e-01
2.971086781686819722e-01
-2.365533863761522249e-01
-1.470257082237894919e-01
2.480640333455305102e-01
8.607176030874130745e-02
-5.608532303250806095e-01
1.065963209389466093e-01
3.201436209474664563e-01
2.541263097567743601e-01
-2.953723692610467078e-01
-3.831675088834322618e-01
-6.918771095884321265e-02
-3.826749082988145645e-02
7.667255642445650055e-02
3.034129455462634684e-01
-1.316100245233792487e-01
3.782629572964245623e-01
2.101142672959000202e-01
-4.678479360840872014e-01
-2.803996019452844046e-01
1.835374615652077268e-01
-3.315929437070534447e-01
4.969062947180583611e-01
5.335434266628017591e-02
-1.016507559813767114e-01
4.075698702087028891e-01
-6.337701108182287879e-02
-7.460912617842848163e-03
3.192218855712667530e-02
3.807601616829744406e-01
6.282708510885430531e-02
-3.586865988757594881e-01
2.529507095953408280e-01
1.725284143962424466e-01
1.764452793192906321e-01
-2.130293991717032986e-01
-1.500604935277745633e-01
3.736829010607317647e-01
2.901222709053856708e-01
6.419165028107697291e-01
-3.823858009315780210e-02
5.349762900502546409e-02
-6.265649262178328849e-01
7.542296059808160577e-03
1.991552937386695810e-01
-2.602424432020563061e-01
2.235695458695355631e-01
1.064135327280110455e-01
3.930855877237703910e-01
-4.766126540922960841e-01
-3.417540924556419779e-01
2.598758390434227628e-01
3.716592079474212995e-01
-3.250876425571567752e-01
2.651226472815336188e-01
-2.837425609245537439e-01
1.636732058427943226e-01
2.225530721377478593e-01
-4.730863509938766365e-01
-1.175704659924824841e-01
2.244765403763542277e-01
4.173910438806922585e-01
2.127438016453278569e-01
-2.618661844301842234e-01
7.276698827569472172e-02
2.290374391093572826e-01
-8.753816153902756192e-02
-4.011028217626425585e-01
